tree
version=v4
num_class=1
num_tree_per_iteration=1
label_index=0
max_feature_idx=818
objective=binary sigmoid:1
feature_names=numero_de_cliente foto_mes active_quarter cliente_vip internet cliente_edad cliente_antiguedad mrentabilidad mrentabilidad_annual mcomisiones mactivos_margen mpasivos_margen cproductos tpaquete1 tpaquete2 tpaquete7 tpaquete9 tcuentas ccuenta_corriente mcuenta_corriente_adicional mcuenta_corriente ccaja_ahorro mcaja_ahorro mcaja_ahorro_adicional mcaja_ahorro_dolares mdescubierto_preacordado mcuentas_saldo ctarjeta_debito ctarjeta_debito_trx mautoservicio ctarjeta_visa ctarjeta_visa_trx mtarjeta_visa_consumo ctarjeta_master ctarjeta_master_trx mtarjeta_master_consumo cprestamos_personales mprestamos_personales cprestamos_prendarios mprestamos_prendarios cprestamos_hipotecarios mprestamos_hipotecarios cplazo_fijo mplazo_fijo_dolares mplazo_fijo_pesos cinversion1 minversion1_pesos minversion1_dolares cinversion2 minversion2 cseguro_vida cseguro_auto cseguro_vivienda cseguro_accidentes_personales ccaja_seguridad cpayroll_trx mpayroll mpayroll2 cpayroll2_trx ccuenta_debitos_automaticos mcuenta_debitos_automaticos ctarjeta_visa_debitos_automaticos mtarjeta_visa_debitos_automaticos ctarjeta_master_debitos_automaticos mttarjeta_master_debitos_automaticos cpagodeservicios mpagodeservicios cpagomiscuentas mpagomiscuentas ccajeros_propios_descuentos mcajeros_propios_descuentos ctarjeta_visa_descuentos mtarjeta_visa_descuentos ctarjeta_master_descuentos mtarjeta_master_descuentos ccomisiones_mantenimiento mcomisiones_mantenimiento ccomisiones_otras mcomisiones_otras cforex cforex_buy mforex_buy cforex_sell mforex_sell ctransferencias_recibidas mtransferencias_recibidas ctransferencias_emitidas mtransferencias_emitidas cextraccion_autoservicio mextraccion_autoservicio ccheques_depositados mcheques_depositados ccheques_emitidos mcheques_emitidos ccheques_depositados_rechazados mcheques_depositados_rechazados ccheques_emitidos_rechazados mcheques_emitidos_rechazados tcallcenter ccallcenter_trx thomebanking chomebanking_trx ccajas_trx ccajas_consultas ccajas_depositos ccajas_extracciones ccajas_otras catm_trx matm catm_trx_other matm_other ctrx_quarter tmobile_app cmobile_app_trx Master_delinquency Master_status Master_mfinanciacion_limite Master_Fvencimiento Master_Finiciomora Master_msaldototal Master_msaldopesos Master_msaldodolares Master_mconsumospesos Master_mconsumosdolares Master_mlimitecompra Master_madelantopesos Master_madelantodolares Master_fultimo_cierre Master_mpagado Master_mpagospesos Master_mpagosdolares Master_fechaalta Master_mconsumototal Master_cconsumos Master_cadelantosefectivo Master_mpagominimo Visa_delinquency Visa_status Visa_mfinanciacion_limite Visa_Fvencimiento Visa_Finiciomora Visa_msaldototal Visa_msaldopesos Visa_msaldodolares Visa_mconsumospesos Visa_mconsumosdolares Visa_mlimitecompra Visa_madelantopesos Visa_madelantodolares Visa_fultimo_cierre Visa_mpagado Visa_mpagospesos Visa_mpagosdolares Visa_fechaalta Visa_mconsumototal Visa_cconsumos Visa_cadelantosefectivo Visa_mpagominimo mes ctrx_quarter_normalizado mpayroll_sobre_edad mv_status01 mv_status02 mv_status03 mv_status04 mv_status05 mv_status06 mv_status07 mv_mfinanciacion_limite mv_Fvencimiento mv_Finiciomora mv_msaldototal mv_msaldopesos mv_msaldodolares mv_mconsumospesos mv_mconsumosdolares mv_mlimitecompra mv_madelantopesos mv_madelantodolares mv_fultimo_cierre mv_mpagado mv_mpagospesos mv_mpagosdolares mv_fechaalta mv_mconsumototal mv_cconsumos mv_cadelantosefectivo mv_mpagominimo mvr_Master_mlimitecompra mvr_Visa_mlimitecompra mvr_msaldototal mvr_msaldopesos mvr_msaldopesos2 mvr_msaldodolares mvr_msaldodolares2 mvr_mconsumospesos mvr_mconsumosdolares mvr_madelantopesos mvr_madelantodolares mvr_mpagado mvr_mpagospesos mvr_mpagosdolares mvr_mconsumototal mvr_mpagominimo campos_nulos promedio_mcomisiones nd_saldopesos_n active_quarter_tend6 cliente_vip_tend6 internet_tend6 cliente_edad_tend6 cliente_antiguedad_tend6 mrentabilidad_tend6 mrentabilidad_annual_tend6 mcomisiones_tend6 mactivos_margen_tend6 mpasivos_margen_tend6 cproductos_tend6 tpaquete1_tend6 tpaquete2_tend6 tpaquete7_tend6 tpaquete9_tend6 tcuentas_tend6 ccuenta_corriente_tend6 mcuenta_corriente_adicional_tend6 mcuenta_corriente_tend6 ccaja_ahorro_tend6 mcaja_ahorro_tend6 mcaja_ahorro_adicional_tend6 mcaja_ahorro_dolares_tend6 mdescubierto_preacordado_tend6 mcuentas_saldo_tend6 ctarjeta_debito_tend6 ctarjeta_debito_trx_tend6 mautoservicio_tend6 ctarjeta_visa_tend6 ctarjeta_visa_trx_tend6 mtarjeta_visa_consumo_tend6 ctarjeta_master_tend6 ctarjeta_master_trx_tend6 mtarjeta_master_consumo_tend6 cprestamos_personales_tend6 mprestamos_personales_tend6 cprestamos_prendarios_tend6 mprestamos_prendarios_tend6 cprestamos_hipotecarios_tend6 mprestamos_hipotecarios_tend6 cplazo_fijo_tend6 mplazo_fijo_dolares_tend6 mplazo_fijo_pesos_tend6 cinversion1_tend6 minversion1_pesos_tend6 minversion1_dolares_tend6 cinversion2_tend6 minversion2_tend6 cseguro_vida_tend6 cseguro_auto_tend6 cseguro_vivienda_tend6 cseguro_accidentes_personales_tend6 ccaja_seguridad_tend6 cpayroll_trx_tend6 mpayroll_tend6 mpayroll2_tend6 cpayroll2_trx_tend6 ccuenta_debitos_automaticos_tend6 mcuenta_debitos_automaticos_tend6 ctarjeta_visa_debitos_automaticos_tend6 mtarjeta_visa_debitos_automaticos_tend6 ctarjeta_master_debitos_automaticos_tend6 mttarjeta_master_debitos_automaticos_tend6 cpagodeservicios_tend6 mpagodeservicios_tend6 cpagomiscuentas_tend6 mpagomiscuentas_tend6 ccajeros_propios_descuentos_tend6 mcajeros_propios_descuentos_tend6 ctarjeta_visa_descuentos_tend6 mtarjeta_visa_descuentos_tend6 ctarjeta_master_descuentos_tend6 mtarjeta_master_descuentos_tend6 ccomisiones_mantenimiento_tend6 mcomisiones_mantenimiento_tend6 ccomisiones_otras_tend6 mcomisiones_otras_tend6 cforex_tend6 cforex_buy_tend6 mforex_buy_tend6 cforex_sell_tend6 mforex_sell_tend6 ctransferencias_recibidas_tend6 mtransferencias_recibidas_tend6 ctransferencias_emitidas_tend6 mtransferencias_emitidas_tend6 cextraccion_autoservicio_tend6 mextraccion_autoservicio_tend6 ccheques_depositados_tend6 mcheques_depositados_tend6 ccheques_emitidos_tend6 mcheques_emitidos_tend6 ccheques_depositados_rechazados_tend6 mcheques_depositados_rechazados_tend6 ccheques_emitidos_rechazados_tend6 mcheques_emitidos_rechazados_tend6 tcallcenter_tend6 ccallcenter_trx_tend6 thomebanking_tend6 chomebanking_trx_tend6 ccajas_trx_tend6 ccajas_consultas_tend6 ccajas_depositos_tend6 ccajas_extracciones_tend6 ccajas_otras_tend6 catm_trx_tend6 matm_tend6 catm_trx_other_tend6 matm_other_tend6 ctrx_quarter_tend6 tmobile_app_tend6 cmobile_app_trx_tend6 Master_delinquency_tend6 Master_status_tend6 Master_mfinanciacion_limite_tend6 Master_Fvencimiento_tend6 Master_Finiciomora_tend6 Master_msaldototal_tend6 Master_msaldopesos_tend6 Master_msaldodolares_tend6 Master_mconsumospesos_tend6 Master_mconsumosdolares_tend6 Master_mlimitecompra_tend6 Master_madelantopesos_tend6 Master_madelantodolares_tend6 Master_fultimo_cierre_tend6 Master_mpagado_tend6 Master_mpagospesos_tend6 Master_mpagosdolares_tend6 Master_fechaalta_tend6 Master_mconsumototal_tend6 Master_cconsumos_tend6 Master_cadelantosefectivo_tend6 Master_mpagominimo_tend6 Visa_delinquency_tend6 Visa_status_tend6 Visa_mfinanciacion_limite_tend6 Visa_Fvencimiento_tend6 Visa_Finiciomora_tend6 Visa_msaldototal_tend6 Visa_msaldopesos_tend6 Visa_msaldodolares_tend6 Visa_mconsumospesos_tend6 Visa_mconsumosdolares_tend6 Visa_mlimitecompra_tend6 Visa_madelantopesos_tend6 Visa_madelantodolares_tend6 Visa_fultimo_cierre_tend6 Visa_mpagado_tend6 Visa_mpagospesos_tend6 Visa_mpagosdolares_tend6 Visa_fechaalta_tend6 Visa_mconsumototal_tend6 Visa_cconsumos_tend6 Visa_cadelantosefectivo_tend6 Visa_mpagominimo_tend6 ctrx_quarter_normalizado_tend6 mpayroll_sobre_edad_tend6 mv_status01_tend6 mv_status02_tend6 mv_status03_tend6 mv_status04_tend6 mv_status05_tend6 mv_status06_tend6 mv_status07_tend6 mv_mfinanciacion_limite_tend6 mv_Fvencimiento_tend6 mv_Finiciomora_tend6 mv_msaldototal_tend6 mv_msaldopesos_tend6 mv_msaldodolares_tend6 mv_mconsumospesos_tend6 mv_mconsumosdolares_tend6 mv_mlimitecompra_tend6 mv_madelantopesos_tend6 mv_madelantodolares_tend6 mv_fultimo_cierre_tend6 mv_mpagado_tend6 mv_mpagospesos_tend6 mv_mpagosdolares_tend6 mv_fechaalta_tend6 mv_mconsumototal_tend6 mv_cconsumos_tend6 mv_cadelantosefectivo_tend6 mv_mpagominimo_tend6 mvr_Master_mlimitecompra_tend6 mvr_Visa_mlimitecompra_tend6 mvr_msaldototal_tend6 mvr_msaldopesos_tend6 mvr_msaldopesos2_tend6 mvr_msaldodolares_tend6 mvr_msaldodolares2_tend6 mvr_mconsumospesos_tend6 mvr_mconsumosdolares_tend6 mvr_madelantopesos_tend6 mvr_madelantodolares_tend6 mvr_mpagado_tend6 mvr_mpagospesos_tend6 mvr_mpagosdolares_tend6 mvr_mconsumototal_tend6 mvr_mpagominimo_tend6 campos_nulos_tend6 promedio_mcomisiones_tend6 nd_saldopesos_n_tend6 active_quarter_lag1 cliente_vip_lag1 internet_lag1 cliente_edad_lag1 cliente_antiguedad_lag1 mrentabilidad_lag1 mrentabilidad_annual_lag1 mcomisiones_lag1 mactivos_margen_lag1 mpasivos_margen_lag1 cproductos_lag1 tpaquete1_lag1 tpaquete2_lag1 tpaquete7_lag1 tpaquete9_lag1 tcuentas_lag1 ccuenta_corriente_lag1 mcuenta_corriente_adicional_lag1 mcuenta_corriente_lag1 ccaja_ahorro_lag1 mcaja_ahorro_lag1 mcaja_ahorro_adicional_lag1 mcaja_ahorro_dolares_lag1 mdescubierto_preacordado_lag1 mcuentas_saldo_lag1 ctarjeta_debito_lag1 ctarjeta_debito_trx_lag1 mautoservicio_lag1 ctarjeta_visa_lag1 ctarjeta_visa_trx_lag1 mtarjeta_visa_consumo_lag1 ctarjeta_master_lag1 ctarjeta_master_trx_lag1 mtarjeta_master_consumo_lag1 cprestamos_personales_lag1 mprestamos_personales_lag1 cprestamos_prendarios_lag1 mprestamos_prendarios_lag1 cprestamos_hipotecarios_lag1 mprestamos_hipotecarios_lag1 cplazo_fijo_lag1 mplazo_fijo_dolares_lag1 mplazo_fijo_pesos_lag1 cinversion1_lag1 minversion1_pesos_lag1 minversion1_dolares_lag1 cinversion2_lag1 minversion2_lag1 cseguro_vida_lag1 cseguro_auto_lag1 cseguro_vivienda_lag1 cseguro_accidentes_personales_lag1 ccaja_seguridad_lag1 cpayroll_trx_lag1 mpayroll_lag1 mpayroll2_lag1 cpayroll2_trx_lag1 ccuenta_debitos_automaticos_lag1 mcuenta_debitos_automaticos_lag1 ctarjeta_visa_debitos_automaticos_lag1 mtarjeta_visa_debitos_automaticos_lag1 ctarjeta_master_debitos_automaticos_lag1 mttarjeta_master_debitos_automaticos_lag1 cpagodeservicios_lag1 mpagodeservicios_lag1 cpagomiscuentas_lag1 mpagomiscuentas_lag1 ccajeros_propios_descuentos_lag1 mcajeros_propios_descuentos_lag1 ctarjeta_visa_descuentos_lag1 mtarjeta_visa_descuentos_lag1 ctarjeta_master_descuentos_lag1 mtarjeta_master_descuentos_lag1 ccomisiones_mantenimiento_lag1 mcomisiones_mantenimiento_lag1 ccomisiones_otras_lag1 mcomisiones_otras_lag1 cforex_lag1 cforex_buy_lag1 mforex_buy_lag1 cforex_sell_lag1 mforex_sell_lag1 ctransferencias_recibidas_lag1 mtransferencias_recibidas_lag1 ctransferencias_emitidas_lag1 mtransferencias_emitidas_lag1 cextraccion_autoservicio_lag1 mextraccion_autoservicio_lag1 ccheques_depositados_lag1 mcheques_depositados_lag1 ccheques_emitidos_lag1 mcheques_emitidos_lag1 ccheques_depositados_rechazados_lag1 mcheques_depositados_rechazados_lag1 ccheques_emitidos_rechazados_lag1 mcheques_emitidos_rechazados_lag1 tcallcenter_lag1 ccallcenter_trx_lag1 thomebanking_lag1 chomebanking_trx_lag1 ccajas_trx_lag1 ccajas_consultas_lag1 ccajas_depositos_lag1 ccajas_extracciones_lag1 ccajas_otras_lag1 catm_trx_lag1 matm_lag1 catm_trx_other_lag1 matm_other_lag1 ctrx_quarter_lag1 tmobile_app_lag1 cmobile_app_trx_lag1 Master_delinquency_lag1 Master_status_lag1 Master_mfinanciacion_limite_lag1 Master_Fvencimiento_lag1 Master_Finiciomora_lag1 Master_msaldototal_lag1 Master_msaldopesos_lag1 Master_msaldodolares_lag1 Master_mconsumospesos_lag1 Master_mconsumosdolares_lag1 Master_mlimitecompra_lag1 Master_madelantopesos_lag1 Master_madelantodolares_lag1 Master_fultimo_cierre_lag1 Master_mpagado_lag1 Master_mpagospesos_lag1 Master_mpagosdolares_lag1 Master_fechaalta_lag1 Master_mconsumototal_lag1 Master_cconsumos_lag1 Master_cadelantosefectivo_lag1 Master_mpagominimo_lag1 Visa_delinquency_lag1 Visa_status_lag1 Visa_mfinanciacion_limite_lag1 Visa_Fvencimiento_lag1 Visa_Finiciomora_lag1 Visa_msaldototal_lag1 Visa_msaldopesos_lag1 Visa_msaldodolares_lag1 Visa_mconsumospesos_lag1 Visa_mconsumosdolares_lag1 Visa_mlimitecompra_lag1 Visa_madelantopesos_lag1 Visa_madelantodolares_lag1 Visa_fultimo_cierre_lag1 Visa_mpagado_lag1 Visa_mpagospesos_lag1 Visa_mpagosdolares_lag1 Visa_fechaalta_lag1 Visa_mconsumototal_lag1 Visa_cconsumos_lag1 Visa_cadelantosefectivo_lag1 Visa_mpagominimo_lag1 ctrx_quarter_normalizado_lag1 mpayroll_sobre_edad_lag1 mv_status01_lag1 mv_status02_lag1 mv_status03_lag1 mv_status04_lag1 mv_status05_lag1 mv_status06_lag1 mv_status07_lag1 mv_mfinanciacion_limite_lag1 mv_Fvencimiento_lag1 mv_Finiciomora_lag1 mv_msaldototal_lag1 mv_msaldopesos_lag1 mv_msaldodolares_lag1 mv_mconsumospesos_lag1 mv_mconsumosdolares_lag1 mv_mlimitecompra_lag1 mv_madelantopesos_lag1 mv_madelantodolares_lag1 mv_fultimo_cierre_lag1 mv_mpagado_lag1 mv_mpagospesos_lag1 mv_mpagosdolares_lag1 mv_fechaalta_lag1 mv_mconsumototal_lag1 mv_cconsumos_lag1 mv_cadelantosefectivo_lag1 mv_mpagominimo_lag1 mvr_Master_mlimitecompra_lag1 mvr_Visa_mlimitecompra_lag1 mvr_msaldototal_lag1 mvr_msaldopesos_lag1 mvr_msaldopesos2_lag1 mvr_msaldodolares_lag1 mvr_msaldodolares2_lag1 mvr_mconsumospesos_lag1 mvr_mconsumosdolares_lag1 mvr_madelantopesos_lag1 mvr_madelantodolares_lag1 mvr_mpagado_lag1 mvr_mpagospesos_lag1 mvr_mpagosdolares_lag1 mvr_mconsumototal_lag1 mvr_mpagominimo_lag1 campos_nulos_lag1 promedio_mcomisiones_lag1 nd_saldopesos_n_lag1 active_quarter_delta1 cliente_vip_delta1 internet_delta1 cliente_edad_delta1 cliente_antiguedad_delta1 mrentabilidad_delta1 mrentabilidad_annual_delta1 mcomisiones_delta1 mactivos_margen_delta1 mpasivos_margen_delta1 cproductos_delta1 tpaquete1_delta1 tpaquete2_delta1 tpaquete7_delta1 tpaquete9_delta1 tcuentas_delta1 ccuenta_corriente_delta1 mcuenta_corriente_adicional_delta1 mcuenta_corriente_delta1 ccaja_ahorro_delta1 mcaja_ahorro_delta1 mcaja_ahorro_adicional_delta1 mcaja_ahorro_dolares_delta1 mdescubierto_preacordado_delta1 mcuentas_saldo_delta1 ctarjeta_debito_delta1 ctarjeta_debito_trx_delta1 mautoservicio_delta1 ctarjeta_visa_delta1 ctarjeta_visa_trx_delta1 mtarjeta_visa_consumo_delta1 ctarjeta_master_delta1 ctarjeta_master_trx_delta1 mtarjeta_master_consumo_delta1 cprestamos_personales_delta1 mprestamos_personales_delta1 cprestamos_prendarios_delta1 mprestamos_prendarios_delta1 cprestamos_hipotecarios_delta1 mprestamos_hipotecarios_delta1 cplazo_fijo_delta1 mplazo_fijo_dolares_delta1 mplazo_fijo_pesos_delta1 cinversion1_delta1 minversion1_pesos_delta1 minversion1_dolares_delta1 cinversion2_delta1 minversion2_delta1 cseguro_vida_delta1 cseguro_auto_delta1 cseguro_vivienda_delta1 cseguro_accidentes_personales_delta1 ccaja_seguridad_delta1 cpayroll_trx_delta1 mpayroll_delta1 mpayroll2_delta1 cpayroll2_trx_delta1 ccuenta_debitos_automaticos_delta1 mcuenta_debitos_automaticos_delta1 ctarjeta_visa_debitos_automaticos_delta1 mtarjeta_visa_debitos_automaticos_delta1 ctarjeta_master_debitos_automaticos_delta1 mttarjeta_master_debitos_automaticos_delta1 cpagodeservicios_delta1 mpagodeservicios_delta1 cpagomiscuentas_delta1 mpagomiscuentas_delta1 ccajeros_propios_descuentos_delta1 mcajeros_propios_descuentos_delta1 ctarjeta_visa_descuentos_delta1 mtarjeta_visa_descuentos_delta1 ctarjeta_master_descuentos_delta1 mtarjeta_master_descuentos_delta1 ccomisiones_mantenimiento_delta1 mcomisiones_mantenimiento_delta1 ccomisiones_otras_delta1 mcomisiones_otras_delta1 cforex_delta1 cforex_buy_delta1 mforex_buy_delta1 cforex_sell_delta1 mforex_sell_delta1 ctransferencias_recibidas_delta1 mtransferencias_recibidas_delta1 ctransferencias_emitidas_delta1 mtransferencias_emitidas_delta1 cextraccion_autoservicio_delta1 mextraccion_autoservicio_delta1 ccheques_depositados_delta1 mcheques_depositados_delta1 ccheques_emitidos_delta1 mcheques_emitidos_delta1 ccheques_depositados_rechazados_delta1 mcheques_depositados_rechazados_delta1 ccheques_emitidos_rechazados_delta1 mcheques_emitidos_rechazados_delta1 tcallcenter_delta1 ccallcenter_trx_delta1 thomebanking_delta1 chomebanking_trx_delta1 ccajas_trx_delta1 ccajas_consultas_delta1 ccajas_depositos_delta1 ccajas_extracciones_delta1 ccajas_otras_delta1 catm_trx_delta1 matm_delta1 catm_trx_other_delta1 matm_other_delta1 ctrx_quarter_delta1 tmobile_app_delta1 cmobile_app_trx_delta1 Master_delinquency_delta1 Master_status_delta1 Master_mfinanciacion_limite_delta1 Master_Fvencimiento_delta1 Master_Finiciomora_delta1 Master_msaldototal_delta1 Master_msaldopesos_delta1 Master_msaldodolares_delta1 Master_mconsumospesos_delta1 Master_mconsumosdolares_delta1 Master_mlimitecompra_delta1 Master_madelantopesos_delta1 Master_madelantodolares_delta1 Master_fultimo_cierre_delta1 Master_mpagado_delta1 Master_mpagospesos_delta1 Master_mpagosdolares_delta1 Master_fechaalta_delta1 Master_mconsumototal_delta1 Master_cconsumos_delta1 Master_cadelantosefectivo_delta1 Master_mpagominimo_delta1 Visa_delinquency_delta1 Visa_status_delta1 Visa_mfinanciacion_limite_delta1 Visa_Fvencimiento_delta1 Visa_Finiciomora_delta1 Visa_msaldototal_delta1 Visa_msaldopesos_delta1 Visa_msaldodolares_delta1 Visa_mconsumospesos_delta1 Visa_mconsumosdolares_delta1 Visa_mlimitecompra_delta1 Visa_madelantopesos_delta1 Visa_madelantodolares_delta1 Visa_fultimo_cierre_delta1 Visa_mpagado_delta1 Visa_mpagospesos_delta1 Visa_mpagosdolares_delta1 Visa_fechaalta_delta1 Visa_mconsumototal_delta1 Visa_cconsumos_delta1 Visa_cadelantosefectivo_delta1 Visa_mpagominimo_delta1 ctrx_quarter_normalizado_delta1 mpayroll_sobre_edad_delta1 mv_status01_delta1 mv_status02_delta1 mv_status03_delta1 mv_status04_delta1 mv_status05_delta1 mv_status06_delta1 mv_status07_delta1 mv_mfinanciacion_limite_delta1 mv_Fvencimiento_delta1 mv_Finiciomora_delta1 mv_msaldototal_delta1 mv_msaldopesos_delta1 mv_msaldodolares_delta1 mv_mconsumospesos_delta1 mv_mconsumosdolares_delta1 mv_mlimitecompra_delta1 mv_madelantopesos_delta1 mv_madelantodolares_delta1 mv_fultimo_cierre_delta1 mv_mpagado_delta1 mv_mpagospesos_delta1 mv_mpagosdolares_delta1 mv_fechaalta_delta1 mv_mconsumototal_delta1 mv_cconsumos_delta1 mv_cadelantosefectivo_delta1 mv_mpagominimo_delta1 mvr_Master_mlimitecompra_delta1 mvr_Visa_mlimitecompra_delta1 mvr_msaldototal_delta1 mvr_msaldopesos_delta1 mvr_msaldopesos2_delta1 mvr_msaldodolares_delta1 mvr_msaldodolares2_delta1 mvr_mconsumospesos_delta1 mvr_mconsumosdolares_delta1 mvr_madelantopesos_delta1 mvr_madelantodolares_delta1 mvr_mpagado_delta1 mvr_mpagospesos_delta1 mvr_mpagosdolares_delta1 mvr_mconsumototal_delta1 mvr_mpagominimo_delta1 campos_nulos_delta1 promedio_mcomisiones_delta1 nd_saldopesos_n_delta1
feature_infos=[4572973:61051692] [202001:202011] [0:1] [0:1] [0:1] [18:100] [1:371] [-177667.95999999999:1724682.3600000001] [-665150.17000000004:5541331.4299999997] [-72791.619999999995:216312.95000000001] [-177929.28:327458.08000000002] [-63476.099999999999:1473863.4399999999] [3:17] [1:2] none [0:1] [0:1] [1:2] [1:3] [-738111.81999999995:1176834.8500000001] [-3573070.3300000001:27796658.640000001] [2:10] [-450.33999999999997:91519566.409999996] [-944.75999999999999:1511906.1000000001] [-22881.369999999999:102164951.84] [0:1.1699999999999999] [-4150591.0499999998:104925298.90000001] [0:301] [0:121] [0:1274326.3600000001] [0:3] [0:252] [0:2544748.79] [0:3] [0:201] [0:1748232.73] [0:241] [0:4564839.0099999998] [0:10] [-588180.23999999999:9119536.5600000005] [0:10] [0:24466152.07] [0:72] [0:34445777.310000002] [0:43764252.479999997] [0:15] [0:88223024.079999998] [0:41642861.25] [0:68] [0:342202486.69] [0:5] [0:9] [0:5] [0:4] [0:7] [0:43] [-39975.389999999999:18030116.41] [-86833.889999999999:11700000] [0:6] [0:243] [0:39325004.759999998] [0:56] [0:730698.18000000005] [0:29] [0:202996.82999999999] [0:19] [0:969728.26000000001] [0:184] [0:25406082.73] [0:19] [0:10824.309999999999] [0:27] [0:35270.230000000003] [0:74] [0:16044.91] [0:71] [-13913.34:5894.46] [0:226] [-72791.619999999995:216312.95000000001] [0:11] [0:9] [0:13338] [0:11] [0:14429.610000000001] [0:1262] [0:89367934.549999997] [0:224] [0:39854779.32] [0:95] [0:2077920] [0:237] [0:18643629.420000002] [0:148] [0:59601133.759999998] [0:22] [0:9509151.5999999996] [0:65] [0:2678163.48] [0:1] [0:113] [0:1] [0:6087] [0:1] [0:32] [0:24] [0:13] [0:95] [0:95] [0:2077920] [0:48] [0:596700] [0:2934] [0:1] [0:3435] [0:1] [0:9] [0:163743139.72999999] [-2914603:6425] [1:118] [-1288226.1799999999:4629012.1399999997] [-1008052.76:4629012.1399999997] [-1119327.8200000001:1006451.53] [-18395.369999999999:1713501.22] [0:13268.969999999999] [982.79999999999995:18034099.199999999] [0:49140] [0:558.77999999999997] [0:4735] [0:1609425.8300000001] [-1888408.0800000001:220703.85000000001] [0:15976.780000000001] [1:7481] [-18395.369999999999:1713501.22] [0:103] [0:21] [0:1997049.6000000001] [0:1] [0:9] [0:218045037.47999999] [-2914603:5054] [0:174] [-693350.53000000003:3715844.79] [-679901.12:4347538.4000000004] [-761550.22999999998:1236628.7] [-19723.459999999999:2501804.0899999999] [0:17846.220000000001] [672.75:21993660] [0:106517.38] [0:1364.2] [0:4924] [0:2002596.3100000001] [-1442843.05:317914.42999999999] [0:15919.440000000001] [1:12396] [-19723.459999999999:2501804.0899999999] [0:208] [0:13] [0:2122497] [1:11] [0:2934] [-701.32263157894704:444450] [0:9] [0:18] [0:10] [0:20] [0:1010] [0:10] [0:10] [0:381788177.20999998] [-2914603:5053] [0:174] [-1113996.9099999999:8344856.9299999997] [-963860.29000000004:8976550.5399999991] [-1112504.9299999999:1555535.73] [-19723.459999999999:3092855.8999999999] [0:19585.240000000002] [0:36205228.799999997] [0:106517.38] [0:1364.2] [0:4924] [0:2230696.1200000001] [-2159278.7000000002:301896.81] [0:27165.5] [1:12396] [-19723.459999999999:3092855.8999999999] [0:226] [0:29] [0:4111766.1000000001] [0.00077121176648809397:1] [0.0029858433474983601:1] [-148.53918265419401:4.8823925796733798] [-173.79083756143999:5.7123929760583501] [-568.16299559460401:655.98194174757305] [-1.02347236467236:4.2881223244014599] [-684.46880258899705:161.944318181819] [-0.059506766381766399:131.04191771047999] [0:0.072587997463136197] [0:0.28333333333333299] [0:0.0012626561472715301] [0:5.7123929760583501] [-9.9820734897732706:0.51731591880341898] [0:0.019196765003216602] [-0.059506766381766399:131.04191771047999] [0:5.2058228951958201] [0:68] [-3707.5599999999999:15922.92] [-6.0565217696313403e-06:5.64051391324628e-05] [-1:1] [-0.29999999999999999:0.29999999999999999] [-1:1] [-7.45714285714286:44] [-67:10] [-145846.52767441899:360807.56400000001] [-585141.47127907001:391659.79599999997] [-47986.699999999997:40800.449999999997] [-108329.624:90485.027325581395] [-133251.71906976699:308596.674] [-2.5:4] [0:1] [0:0] [-1:1] [-1:1] [-1:1] [-0.25714285714285701:0.22857142857142901] [-105753.120285714:79298.506571428501] [-3538123.8877142901:2079035.72942857] [-2:2] [-2278308.8268571398:13822858.8548571] [-361293.09399999998:500023.41571428598] [-13452014.039999999:9549120.6425714307] [-1.1699999999999999:1.1699999999999999] [-24040979.574571401:27441803.995999999] [-2:2] [-47:50] [-103099.07000000001:229822.39000000001] [-1:1] [-42:51] [-245362.21057142899:372254.46999999997] [-1:1] [-36.299999999999997:28] [-234466.04999999999:368175.01000000001] [-10.8571428571429:35.1142857142857] [-278040.67714285699:742200.58885714295] [-1:1.3142857142857101] [-392671.583428571:810397.26171428501] [-0.71428571428571397:1.3714285714285701] [-2438698.1197142899:603115.66342857201] [-5.71428571428571:14.8857142857143] [-19002581.229428601:6491160] [-4838491.3757142797:10639618.1691429] [-6:2.5] [-8336334.3891428597:10050855.117142901] [-3714523.8014285699:1494986.5025714301] [-5:6.7428571428571402] [-16246536.1457143:26774146.892571401] [-2:1] [-1:1.02857142857143] [-1:1] [-1:1] [-0.80000000000000004:1] [-11:6.9000000000000004] [-2285767.0568571398:2577390.2905714302] [-2005714.2857142901:1671428.57142857] [-1.6000000000000001:4] [-28:9] [-404683.87114285701:8988572.5165714305] [-7:9] [-76935.713142857101:88034.7214285714] [-13.742857142857099:7.9428571428571404] [-126155.89200000001:22933.580000000002] [-4.4285714285714297:5] [-89488.657142857206:84224.645000000004] [-24.314285714285699:18] [-1260537.88857143:8113460.78057143] [-18:9] [-3162.5999999999999:3161.1799999999998] [-8:10] [-6976.125:7528.9499999999998] [-18:16] [-9026.2700000000004:5853.3400000000001] [-28:10.1428571428571] [-8738.0599999999995:3113.65942857143] [-52.600000000000001:52.299999999999997] [-47986.699999999997:40800.449999999997] [-4.9428571428571404:6] [-3.8857142857142901:2] [-23410.0377142857:11399.142857142901] [-4.9428571428571404:6] [-34765.714285714297:5937.2820000000002] [-168.085714285714:173.228571428571] [-18856640.399428599:15613155.2842857] [-22.1142857142857:50.714285714285701] [-10712400.0094286:5519968.8948571496] [-26:40] [-432900:501619.95000000001] [-57.5:28] [-2595548.3473255802:3211275.00405405] [-18.9142857142857:16.635135135135101] [-5609512.1661627898:10177576.272972999] [-7.4324324324324298:7.8285714285714301] [-265290.69767441897:1530412.2154285701] [-7.8255813953488396:10.4285714285714] [-349925.36523255799:431233.35428571398] [-1:1] [-33:31] [-1:1] [-1032.5232558139501:1179.2285714285699] [-1:1] [-9.8108108108108105:6] [-37.148648648648603:5.9000000000000004] [-6.28571428571429:9] [-10:13.5714285714286] [-26:40] [-432900:499279.95000000001] [-12:33] [-73710:126115.11627907] [-235.28571428571399:505.48648648648702] [-1:1] [-591:639.37142857142896] [-1:1] [-9:9] [-27686755.140000001:28509375.379999999] [-711414.96511627897:1456800.5] [-32:31] [-788881.45299999998:747077.64914285601] [-788881.45299999998:843407.03799999994] [-287716.79428571399:126213.786285714] [-612202.5:349961.03000000003] [-10237.5:3249.5] [-782941.26857142895:924611.50085714296] [-17550:16497] [-129.53999999999999:94.966000000000093] [-920.20000000000005:638.60000000000002] [-272433.89500000002:244416.32399999999] [-587054.01500000001:640687.31999999995] [-5865.0299999999997:9805.1849999999995] [-1414:400.857142857143] [-612202.5:349961.03000000003] [-36:32] [-9:11] [-243097.92000000001:354994.71428571403] [-1:1] [-9:9] [-27686755.140000001:78710462.769999996] [-666025.68571428605:2913113] [-32:31] [-1264965.26:717447.40000000002] [-1480009.3500000001:947400.58200000098] [-247258.64028571401:362145.57400000002] [-371975.26000000001:383258.23485714302] [-4120.0557142857197:5115.0231428571396] [-659016.33799999999:3101837.1428571399] [-25117.9174285714:17550] [-442.48228571428598:116.602] [-942:1011.2] [-791729.22999999998:323117.26000000001] [-1148173.6499999999:192480.66500000001] [-3326.8099999999999:6738.2697142857196] [-3461:1329.5142857142901] [-371975.26000000001:383258.23485714302] [-54:49] [-9:4] [-1480003.2:429308.09999999998] [-235.28571428571399:505.48648648648702] [-68137.667911404598:59915.877275303697] [-9:9] [-18:18] [-10:9] [-20:18] [-1010:909] [-10:9] [-10:9] [-55373510.280000001:107219838.15000001] [-749157.17142857204:2913113] [-32:71] [-1137787.62914286:1464525.0491428601] [-1233821.2037142899:1790807.6200000001] [-308311.38114285702:362145.57400000002] [-367311.87:387366.58000000002] [-5142.83714285715:5115.0231428571396] [-1545386.28742857:3115730.1814285698] [-25117.9174285714:18720] [-442.48228571428598:116.602] [-942:1011.2] [-190942.431428571:304948.445714286] [-720876.36142857198:330779.26628571399] [-4931.2871428571398:6738.2697142857196] [-3454:1218.4857142857099] [-367311.87:387366.58000000002] [-44:49] [-6.9428571428571404:5] [-392520.625714286:693459.33428571397] [-0.5:0.58333333333333304] [-0.56993628804466501:0.73684210526315796] [-31.1812374673035:11.542070118684601] [-36.476429398238103:13.5042223373623] [-85.077605056773706:183.26361648437] [-0.342763751917598:1.6709747106389701] [-183.263227351409:85.974567233027301] [-11.111470337342899:18.720273958640099] [-0.017492468685587501:0.0172178305284378] [-0.050612244897959201:0.083333333333333301] [-0.00032936798651084399:0.00030051188128111199] [-0.92041365329826896:1.6618389964079401] [-1.4218282748173401:1.0319444444444501] [-0.0066891493691493701:0.0064877273723427603] [-11.111470337342899:18.720273958640099] [-0.59127976190476195:1.5537074462356899] [-106:26.5] [-25215.897499999999:13600.15] [-7.7528507582030603e-06:1.12527359496797e-05] [0:1] [0:1] [0:1] [0:100] [1:370] [-118681.96000000001:524049.01000000001] [-691722.33999999997:5819589.9000000004] [-35615.199999999997:194790.85000000001] [-164920.16:273997.48999999999] [-55182.730000000003:510435.54999999999] [3:18] [1:2] [0:0] [0:1] [0:1] [1:2] [1:3] [-8903.3299999999999:1176834.8500000001] [-3573070.3300000001:24752781.579999998] [2:10] [-1055.02:21212170.289999999] [-4847.04:2291842.7400000002] [-22045.91:98433844.480000004] [0:1.1699999999999999] [-3571813.5499999998:99193146.75] [0:302] [0:138] [0:680618.48999999999] [0:3] [0:424] [0:2415396.8100000001] [0:3] [0:146] [0:1888407.8500000001] [0:202] [0:4440116.71] [0:9] [-89432.809999999998:9285312.0199999996] [0:9] [0:24129464.789999999] [0:70] [0:33871384.039999999] [0:43447833] [0:15] [0:77292213] [0:40444633.210000001] [0:66] [0:372550923.68000001] [0:5] [0:9] [0:5] [0:4] [0:7] [0:49] [-168219.23999999999:20249322.18] [-96822.910000000003:687960] [0:5] [0:220] [0:39325004.759999998] [0:53] [0:345281.33000000002] [0:73] [0:162424.32000000001] [0:31] [0:642720.60999999999] [0:198] [0:95283271.879999995] [0:27] [0:7576.3299999999999] [0:31] [0:62497.169999999998] [0:59] [0:63183.889999999999] [0:71] [-13622.26:7776.4399999999996] [0:229] [-35615.199999999997:194790.85000000001] [0:16] [0:10] [0:29250] [0:16] [0:14429.610000000001] [0:1220] [0:103384764.83] [0:227] [0:51876420.670000002] [0:122] [0:2223000] [0:243] [0:15721820.300000001] [0:137] [0:43207358.020000003] [0:52] [0:7657790.0300000003] [0:74] [0:2885454] [0:1] [0:105] [0:1] [0:9194] [0:1] [0:41] [0:27] [0:22] [0:41] [0:122] [0:2223000] [0:51] [0:386100] [0:3090] [0:1] [0:2132] [0:1] [0:9] [0:70422524.099999994] [-2914634:6394] [-1:172] [-1297923.1000000001:3709575.9500000002] [-329885.01000000001:3709575.9500000002] [-1096971.0800000001:1059580.23] [-38495.629999999997:1873206.3] [0:15976.780000000001] [982.79999999999995:17539891.199999999] [0:82203.699999999997] [0:1164.6800000000001] [-1:4704] [0:1888408.0800000001] [-1649630.71:28895.810000000001] [0:11968.799999999999] [1:7451] [-38495.629999999997:1873206.3] [0:143] [0:30] [0:1153959.3] [0:1] [0:9] [0:70032028.629999995] [-2915152:5023] [0:145] [-581872.92000000004:3024994.5699999998] [-680791.31000000006:3539243.6400000001] [-457073.41999999998:1476072.03] [-18132.689999999999:1961000.73] [0:24312.599999999999] [672.75:17589312] [0:123858.64] [0:2068.0999999999999] [-1:4893] [0:1075789.8899999999] [-6545875.2199999997:281931.96999999997] [0:58500] [1:12365] [-18132.689999999999:1961000.73] [0:394] [0:33] [0:2809496.4300000002] [0:3090] [-3912.0753488372102:455529.723902439] [0:9] [0:18] [0:10] [0:20] [0:1010] [0:10] [0:10] [0:140454552.72999999] [-2915152:5023] [-1:145] [-1148051.6899999999:6734570.5199999996] [-701289.17000000004:7248819.5899999999] [-1093638.48:1700510.8400000001] [-38006.220000000001:2781311.5299999998] [0:27254.490000000002] [0:35129203.200000003] [0:123858.64] [0:2068.0999999999999] [-1:4893] [0:1888408.0800000001] [-6545875.2199999997:281931.96999999997] [0:58500] [1:12365] [-38006.220000000001:2781311.5299999998] [0:394] [0:45] [0:2809496.4300000002] [0.00078983259780172703:1] [0.0029858433474983601:1] [-99.026121769462506:8.5316909782780996] [-115.860561677501:9.9820734897732706] [-598.43298969072202:2144.95616438356] [-0.99967720797720805:13.768392262565399] [-2143.7835616438401:599.59793814432999] [-0.066152955840455802:80.267985967972095] [0:0.104237626453525] [0:0.28333333333333299] [0:0.00112716414639492] [0:9.9820734897732706] [-12.1339186618043:0.52513632478632499] [0:0.052521008403361297] [-0.066152955840455802:80.267985967972095] [0:9.4725107023941604] [0:109] [-1759.2449999999999:23958.07] [-4.4066273597719199e-06:4.5548752351821798e-05] [-1:1] [0:1] [-1:1] [-11:44] [-175:31] [-190581.20999999999:1558197.71] [-632093.54000000004:1722761.6599999999] [-194790.85000000001:145594.59] [-171098.20999999999:272252.38] [-161703.76000000001:1331679.3700000001] [-6:4] [0:1] [0:0] [-1:1] [-1:1] [-1:1] [-1:0] [-738111.81999999995:81929.130000000005] [-6206622.7400000002:9467413.0199999996] [-4:4] [-7608941.6500000004:82633557.069999993] [-1206299.55:974920.16000000003] [-18048612.989999998:16262112.220000001] [-1.1699999999999999:1.1699999999999999] [-53212306.119999997:24186428.809999999] [-4:4] [-88:96] [-410468.92999999999:613929.87] [-2:1] [-221:184] [-1734135.0800000001:2419965.1400000001] [-2:1] [-130:74] [-1486134.0600000001:1052431.6000000001] [-29:39] [-1053119.03:1465718.79] [-5:4] [-1032630.01:3331713.3599999999] [-5:2] [-17550873.829999998:561337.81000000203] [-26:22] [-12914634.33:31707000] [-27285357.550000001:21876941.969999999] [-9:9] [-39149871.950000003:12146806.48] [-2925677.1099999999:1385013.8600000001] [-17:16] [-37934829.210000001:47436814.390000001] [-3:2] [-2:3] [-3:2] [-2:1] [-2:3] [-37:36] [-20249322.18:17671371.550000001] [-687960:11700000] [-3:6] [-102:62] [-1976412.3:7929980.3200000003] [-27:28] [-292766.38:634189.58999999997] [-45:16] [-127764:166236.10999999999] [-24:17] [-412471.79999999999:852553.78000000003] [-117:176] [-69877189.150000006:19996038.649999999] [-27:17] [-7576.3299999999999:10824.309999999999] [-31:15] [-62497.169999999998:35270.230000000003] [-59:74] [-63183.889999999999:16044.91] [-70:71] [-15633.530000000001:13622.26] [-193:33] [-194790.85000000001:145562.95999999999] [-14:10] [-9:9] [-29250:10413] [-14:10] [-10140.93:2875.8800000000001] [-385:1226] [-91458900:34743277.259999998] [-142:81] [-39612806.5:25983828.620000001] [-80:88] [-980556.52000000002:1873170] [-126:74] [-14682335.699999999:18361822.449999999] [-57:48] [-6388806.3399999999:23419910.079999998] [-30:8] [-7657790.0300000003:9509151.5999999996] [-52:53] [-2885454:2175063.48] [-1:1] [-65:90] [-1:1] [-9194:4120] [-1:1] [-36:16] [-20:11] [-20:10] [-41:95] [-80:88] [-980556.52000000002:1873170] [-36:36] [-212609.69:228150] [-548:408] [-1:1] [-2131:2010] [-1:1] [-9:9] [-69434495.670000002:160605691.69999999] [-4352:4503] [-59:31] [-1615503.3600000001:1462156.1799999999] [-1615503.3600000001:1099698.0900000001] [-899794.32999999996:963896.08999999997] [-1486134.0600000001:1024815.96] [-14657.25:13056.469999999999] [-2556684.5600000001:1151260.0900000001] [-72320.490000000005:17550] [-1027.9100000000001:253.84] [-333:3741] [-1483739.8999999999:1462156.1799999999] [-1766825.02:1628017.5600000001] [-11499.879999999999:15976.780000000001] [-6403:2526] [-1486134.0600000001:1024815.96] [-130:68] [-30:11] [-1024253.1:852543.90000000002] [-1:1] [-9:9] [-69050090.340000004:214898749.30000001] [-2913842:2914391] [-32:31] [-2369818.73:2070889.8] [-2772687.9100000001:2422125.7200000002] [-1476072.03:858061.59999999998] [-1633400.73:2397549.5499999998] [-24312.599999999999:13886.959999999999] [-2822767.3300000001:21712860] [-112620.71000000001:45630] [-1881.5799999999999:565.00999999999999] [-4750:3776] [-1075789.8899999999:2002596.3100000001] [-1244290.1399999999:5497873.2199999997] [-48283.870000000003:12313.370000000001] [-7663:4313] [-1633400.73:2397549.5499999998] [-217:111] [-30:10] [-2804746.23:1070912.7] [-548:408] [-455498.78439024399:427882.07871794899] [-9:9] [-18:18] [-10:10] [-20:20] [-1010:1010] [-10:10] [-10:10] [-138484586.00999999:375504441] [-2913112:2914391] [-61:65] [-2773125.79:3803388.7799999998] [-2969921.6000000001:4111787.4199999999] [-1675909.4199999999:1227994.52] [-2699919.8999999999:2397549.5499999998] [-27147.419999999998:19585.240000000002] [-5674569.8200000003:21810111.27] [-112620.71000000001:45630] [-1881.5799999999999:340.75999999999999] [-4750:3776] [-1483739.8999999999:2230696.1200000001] [-2159278.7000000002:5497873.2199999997] [-48283.870000000003:16015.469999999999] [-7458:4313] [-2699919.8999999999:2397549.5499999998] [-217:123] [-45:13] [-2804746.23:4111766.1000000001] [-0.63636363636363602:0.82758620689655205] [-0.77419354838709697:0.80000000000000004] [-49.513060884731303:69.400368638021305] [-57.930275883938499:81.198430315522501] [-2144.2428062321701:677.547834175361] [-9.4802699381639393:1.3980497859521199] [-708.10212497257601:2144.2402029893801] [-63.556603773584897:131.04191771047999] [-0.104237626453525:0.072587997463136197] [-0.25833333333333303:0.20000000000000001] [-0.0011000986193293899:0.00092962962962962997] [-4.2696805137149196:4.1587521801173297] [-9.9820734897732706:12.1339186618043] [-0.052521008403361297:0.013419432447742] [-63.556603773584897:131.04191771047999] [-4.2666878071983501:3.95364277786586] [-108:67] [-21512.974999999999:13600.15] [-1.8661827871857201e-05:2.5836866898340901e-05]
tree_sizes=4804 4883 4904 4931 4940 4895 4940 4971 4944 4978 4951 4961 4978 4953 4961 4946 4994 4957 4975 4971 4980 4999 4965 4972 5006 5025 4985 4984 4965 5001 5004 5034 5008 4984 5005 4995 4962 4972 4988 4960 4967 4975 5002 4989 4963 4929 4988 4998 4986 5014 4999 4978 4984 5005 5031 4995 5004 5011 4992 4996 5014 5016 4967 5012 4986 5038 5004 4973 4997 5000 4994 4998 5024 5000 4967 4982 5000 4968 5006 5034 4998 4982 5005 4998 5017 4998 4993 4999 5021 5001 4993 4977 4988 4965 4991 4980 4973 5005 4991 5008 5000 5012 5005 4979 5001 4976 4970 5013 4973 4993 5025 4986 5008 5005 4973 4982 4986 4986 4962 4995 5024 4947 5009 4990 5013 4987 5026 4958 4959 5008 4996 4967 4958 4975 4971 4983 5003 4984 5022 4966 4966 5054 4993 4991 4991 4973 4990 4996 4969 4982 4989 4979 4994 5032 4997 5040 4985 4993 4987 5031 4981 4957 5013 4969 4956 4964 4982 5012 4988 5006 4959 4964 4965 4998 4964 5020 5001 5007 5030 5046 5004 4985 4990 4978 5011 4976 5021 4984 4998 5036 4980 4995 5021 4992 4998 5007 4968 4977 4994 4994 4964 4998 4981 5016 5004 4979 5013 4981 4951 4971 4974 4976 4979 4976 5016 5017 4979 5003 4992 4993 5039 4946 4987 4966 4963 5001 5006 5027 5005 4968 4972 5002 5031 4964 4992 5015 4994 4948 4984 4958 4953 4952 5027 4992 4972 5004 4997 4946 4999 5070 5016 4952 4954 5010 4991 5040 4974 4997 4976 5027 4991 4961 4976 5011 4962 5009 5011 4997 4980 5002 4986 4989 4956 4971 4936 4976 4960 5029 4998 4992 4996 4949 4978 5046 4969 4982 4970 4963 4981 5023 4989 5011 5002 4984 5008 4991 5015 5040 4989 4980 5046 4987 4970 4995 5053 5044 5016 4968 5027 4994 4998 4972 4979 4966 4991 5011 5002 4960 4990 5054 4960 4979 4976 4980 4992 5018 5012 4961 4965 5021 4983 4954 4999 4952 4991 4974 5008 4983 4993 5023 4962 4943 4986 4959 5005 4948 4966 4991 4974 4934 4989 5055 4990 4987 4971 4963 4946 5030 4958 4962 4994 4967 4997 5028 4984 4952 5024 4964 4951 4982 5020 4968 5015 4966 4969 4986 4998 4966 4950 4982 4948 4984 4978 4931 4995 4975 4955 4969 4983 4981 4965 4947 4985 4952 4976 4978 4990 5004 4961 4968 4979 4989 4984 4984 4999 5036 4961 4983 4979 4986 4978 4948 4959 4976 4964 4969 4976 5012 5024 4938 4968 4962 4957 5012 5027 4954 4957 4952 4999 4952 5014 4963 4983 4998 4969 4999 4954 4967 4972 4967 4998 4994 4954 4971 4985 4946 4957 4956 4975 5014 4982 4964 4955 4959 4973 4979 4940 4984 4924 4999 5033 4967 4901 5031 4964 4973 4966 4931 4994 4997 4985 5011 4960 5041 5009 4967 4952 4994 4943 4998 5036 4963 4958 4954 4967 4970 5001 4978 4970 4973 4967 4954 4990 4963 4970 4978 4990 4943 4970 4975 4970 4950 4972 4909 4961 4891 4959 4982 4925 4976 4982 4996 4989 4982 5023 4991 4938 4983 4944 4984 5012 4958 5023 4996 4981 4946 4976 4985 4990 5013 4988 4959 4974 4994 4948 4986 4957 4895 5016 5015 4944 5013 5001 5049 4970 4987 4984 4964 5006 4985 4988 4965 4950 4996

Tree=0
num_leaves=44
num_cat=0
split_feature=371 159 138 159 37 25 241 22 22 22 25 281 137 1 159 22 354 426 445 766 445 781 172 374 573 141 37 25 434 22 9 1 22 10 283 37 25 172 140 21 370 37 192
split_gain=35589.2 19822.2 17117.8 10246.4 7223.75 14338.7 7069.1 5171.63 3727.67 3665.09 3758.4 3157.47 2288.5 2212.81 1958.01 1945 1851 1503.87 1474.85 1425.19 1390.93 1380.21 1276.27 1021.87 996.569 982.964 1263.26 2131.84 3064.08 1736.64 1379.58 1444.1 949.428 947.415 885.424 771.888 937.544 760.825 730.165 722.161 670.07 966.233 627.896
threshold=0.7857142857142857 19.500000000000004 1.0000000180025095e-35 34.500000000000007 10836.530000000002 1.0000000180025095e-35 -0.12857142857142848 196.06000000000003 1.0000000180025095e-35 1.0000000180025095e-35 1.0000000180025095e-35 128.43671428571454 8.0000000000000018 202007.50000000003 34.500000000000007 1.0000000180025095e-35 0.61428571428571466 1.5000000000000002 1.0000000180025095e-35 30.500000000000004 1.0000000180025095e-35 30.500000000000004 955.70500000000015 30.600000000000005 305.00000000000006 784.36500000000012 25817.065000000006 1.0000000180025095e-35 1.0000000180025095e-35 1.0000000180025095e-35 835.55500000000018 202007.50000000003 1565.3100000000002 -25.304999999999996 -122.09878378378399 25817.065000000006 1.0000000180025095e-35 5073.2350000000006 51.500000000000007 3.5000000000000004 1.0142857142857153 10836.530000000002 1.0000000180025095e-35
decision_type=10 2 8 2 2 2 8 2 2 2 2 10 10 2 2 2 8 8 10 10 10 10 2 8 8 10 2 2 10 2 2 2 2 2 8 2 2 2 10 2 10 2 10
left_child=1 6 8 4 5 13 9 11 20 10 18 17 23 15 32 -4 -14 25 33 -6 -2 39 35 -7 -10 26 27 28 29 30 31 34 37 -1 -8 36 -13 -3 -16 -5 -23 -42 -12
right_child=2 14 3 21 19 12 7 -9 24 -11 42 22 16 -15 38 -17 -18 -19 -20 -21 -22 40 -24 -25 -26 -27 -28 -29 -30 -31 -32 -33 -34 -35 -36 -37 -38 -39 -40 -41 41 -43 -44
leaf_value=-2.3076153147562497 -1.6418526087312544 -4.9379793850548426 -2.4713190711608228 -4.9907481530298146 -4.8385547515700713 -4.9812881469509529 -2.8968091045042725 -5.0085606619079828 -3.2776825699754619 -4.7002378052416764 -4.1994947549942987 -4.093681741839025 -3.3038044088609051 -3.8042015277814185 -5.0796642748218481 -3.700184121710504 -4.717430045786001 -5.0119735444496758 -4.1414980129932841 -3.9174982196941883 -2.8338774620210456 -4.77115250270404 -4.893098648003372 -4.4528458430275109 -4.5460851633962029 -4.9699506914312588 -5.0066604289148477 -4.833302718421904 -3.1158113625156663 -4.8960756802259144 -4.8625164376305499 -4.4311360853278945 -5.0551852629615359 -3.4828714037238817 -4.0287307297216763 -4.973274680988558 -4.5850622866696833 -5.0357701804979467 -4.4994690565109972 -4.5239751993942061 -3.4624440280750317 -4.5916959231397341 -4.8703272824055528
leaf_weight=1.2353470283560459 1.1162018715403967 120.12338734092191 4.3895579730160561 36.590100475121289 14.824164118152112 3.6433330569416285 0.97824434610083699 378.98815808398649 0.86536999139934745 13.570004730485378 2.9096498293802169 3.2357312715612343 2.1258002007380119 2.0129258465021849 8055.4407331347466 1.2478886106982825 1.040952302515507 63.842984216287732 0.87164078932255495 1.3858461463823921 2.1822373741306365 2.7842338704504064 13.043257767334579 11.394038196187468 1.0158691136166453 46.059003959875554 24.324421552475542 112.12812127359211 1.1287434673868126 7.4873316204175353 2.3264656886458397 3.1416693106293678 424.41381133440882 0.89045318262651574 1.1162018729373815 3.3862303788773707 30.927570898551494 119.95407571690157 1.636678029783069 2.6839011204428962 0.94689035089686546 1.4422833113931117 1.6492196125909684
leaf_count=197 178 19156 700 5835 2364 581 156 60437 138 2164 464 516 339 321 1284596 199 166 10181 139 221 348 444 2080 1817 162 7345 3879 17881 180 1194 371 501 67681 142 178 540 4932 19129 261 428 151 230 263
internal_value=-5.05919 -5.06442 -4.52068 -4.61251 -4.30524 -4.02024 -4.92521 -4.94032 -2.98696 -4.43028 -3.94548 -4.85772 -4.43956 -3.02247 -5.07581 -2.74334 -3.76848 -4.896 -3.19003 -4.75981 -2.43049 -4.9033 -4.65903 -4.58088 -3.96262 -4.85874 -4.82518 -4.79078 -4.49603 -4.59955 -4.30598 -4.0587 -5.03049 -2.79991 -3.50005 -4.57773 -4.53852 -4.98684 -5.07955 -4.95885 -4.48159 -4.14414 -4.44218
internal_weight=0 9434.81 91.6916 86.5119 42.0645 25.8545 713.24 692.114 5.17968 21.1263 7.55631 313.126 18.2041 7.65037 8721.57 5.63745 3.16675 262.533 2.99744 16.21 3.29844 44.4474 50.5928 15.0374 1.88124 198.69 152.631 128.307 16.1787 15.0499 7.56258 5.23612 664.491 2.1258 2.09445 37.5495 34.1633 240.077 8057.08 39.274 5.17341 2.38917 4.55887
internal_count=1519185 1504563 14622 13796 6708 4123 113740 110371 826 3369 1205 49934 2903 1220 1390823 899 505 41866 478 2585 526 7088 8068 2398 300 31685 24340 20461 2580 2400 1206 835 105966 339 334 5988 5448 38285 1284857 6263 825 381 727
is_linear=0
shrinkage=1


Tree=1
num_leaves=44
num_cat=0
split_feature=159 20 32 235 226 55 167 32 55 281 159 1 649 1 164 227 75 304 419 562 217 56 32 267 111 241 649 342 418 779 131 1 416 305 282 320 75 213 650 788 374 409 305
split_gain=22829.5 7199.51 3505.75 2573.33 1059.01 1031.78 1011.67 1010.95 917.613 877.273 677.687 646.892 622.943 560.895 552.456 538.629 508.748 457.252 418.046 474.352 397.094 367.153 548.32 363.94 344.769 316.224 330.238 304.35 424.483 293.056 291.841 288.033 275.042 274.33 267.279 260.39 259.153 227.335 223.48 214.738 208.905 239.634 277.264
threshold=27.500000000000004 -79.729999999999976 848.07000000000005 -0.092857142857142846 0.27142857142857152 1.0000000180025095e-35 6.5000000000000009 3054.8500000000008 1.0000000180025095e-35 171.40171428571401 54.500000000000007 202004.50000000003 1.0000000180025095e-35 202003.50000000003 11.000000000000002 2114.6550000000002 1.5000000000000002 1.0000000180025095e-35 394.71500000000009 927.50000000000011 -0.12857142857142848 1.0000000180025095e-35 3054.8500000000008 -239.63799999999847 10.500000000000002 0.12857142857142853 -1.0000000180025095e-35 1.0000000180025095e-35 609.22000000000014 1.0000000180025095e-35 248.50000000000003 202004.50000000003 3357.3650000000002 0.089368770764119615 -0.57059800664451787 1.9142857142857153 1.0000000180025095e-35 -1.0000000180025095e-35 -18511.019999999997 1.0000000180025095e-35 -4.9499999999999993 1.7785647940371001 0.034555984555984555
decision_type=2 2 2 8 8 2 2 2 2 10 2 2 8 2 2 8 2 10 10 10 8 2 2 8 2 10 10 8 8 10 8 2 10 10 10 8 2 8 10 8 10 10 8
left_child=1 2 6 4 8 7 9 11 14 20 21 29 16 -11 -2 17 32 25 19 39 27 22 23 -5 30 26 -13 28 -1 -3 -22 -30 38 -32 -33 -16 -21 -28 -8 -15 41 -40 -43
right_child=3 5 -4 10 -6 -7 12 -9 -10 13 -12 15 -14 18 35 -17 -18 -19 -20 36 24 -23 -24 -25 -26 -27 37 -29 31 -31 33 34 -34 -35 -36 -37 -38 -39 40 -41 -42 42 -44
leaf_value=0.16236862509730526 0.034070229593349044 0.038664371171256796 0.060878627586836598 0.1748310221570554 0.63529966723969711 -0.019593946534804368 0.48243622767217781 0.0054366163431655247 0.0068657178411598687 0.16266702576199432 -0.022405721543524968 0.49840239067062408 0.087882942204954087 0.30901960337085832 0.30527697739356968 0.026353149123634016 0.58055718678348867 0.25946518036235239 0.10446392766032718 0.17960972019258994 0.055716253327655008 -0.022420880615538784 -0.0050572744247518201 0.034055842342629136 0.097244543352796087 -0.0055846832186656368 0.14643344691767729 0.17493685392963382 0.25202380828301046 0.2871142768791114 0.18243646964554572 0.25180112189861015 0.19611104930508294 0.36843242958024736 0.68318857998866234 0.1466543327521341 0.50269525087331046 0.086976894847565184 0.2857545070508406 0.052971108355911137 0.22032966461869863 0.35910942595498019 0.70379868797665035
leaf_weight=7.0767530319280922 12.016760545317082 175.47369417501613 147.03932164236903 14.649889213033019 3.0643229987472287 136.36639654729515 4.5128198275342575 165.19871899764985 34.102952808141708 22.324910033028573 6903.8263829532079 1.7747465795837332 13.291167421266435 13.536906811408699 22.538697737269107 47.801836543250829 4.2386144502088419 18.26495753088966 5.1873551947064689 2.1185406241565969 12.185391770210115 410.60279853269458 633.69517534039915 255.05992754083127 85.75270170532167 14.93499479210004 118.44646862801164 30.96637323917821 3.5338885886594671 3.6562125450000158 54.21307146595791 1.4733017738908545 27.07361227972433 6.7243138826452187 4.0953117436729354 11.944828740321094 16.1558190388605 82.170343206264079 76.696610978804529 3.0227216524072 28.324579227250069 13.39992503961548 2.0268056048080316
leaf_count=817 1914 25043 21722 2313 262 20847 216 25362 4621 2351 1123056 208 1598 1425 1551 7204 246 2414 638 225 1622 66384 102148 40453 12153 2234 16496 1348 410 208 6324 172 1376 818 487 1276 1806 11947 5187 244 975 924 160
internal_value=0 0.104402 0.17692 -0.0174217 0.134134 0.0488843 0.215881 0.0637605 0.115081 0.182698 -0.0189647 0.084592 0.2684 0.27297 0.194444 0.110417 0.283753 0.127474 0.3345 0.368756 0.15538 -0.000885315 0.00890272 0.0417024 0.134607 0.116381 0.125381 0.22538 0.321926 0.0437355 0.178423 0.445973 0.275479 0.202961 0.569055 0.250331 0.46524 0.122081 0.292674 0.262282 0.285564 0.305622 0.404396
internal_weight=0 1349.06 584.971 8301.5 83.6676 764.088 437.931 627.722 80.6032 268.367 8217.83 462.523 169.564 62.3463 46.5003 283.393 156.273 235.592 40.0213 34.834 206.021 1314.01 903.405 269.71 158.875 217.327 202.392 47.1456 16.1793 179.13 73.1228 9.1025 152.034 60.9374 5.56861 34.4835 18.2744 200.617 124.961 16.5596 120.448 92.1233 15.4267
internal_count=1519185 175207 63244 1343978 9624 111963 41522 91116 9362 30840 1334354 65754 10682 6689 4741 40503 9084 33299 4338 3700 24151 211298 144914 42766 20917 30885 28651 3234 1886 25251 8764 1069 8838 7142 659 2827 2031 28443 7462 1669 7246 6271 1084
is_linear=0
shrinkage=0.0274664


Tree=2
num_leaves=44
num_cat=0
split_feature=22 32 32 56 241 22 280 140 166 280 777 161 158 158 158 99 445 305 140 562 435 141 779 8 123 8 56 32 419 356 321 22 649 158 598 102 205 21 164 420 8 791 591
split_gain=16447.6 7731.5 2642.66 2644.4 1382.49 1304.92 1075.63 1029.7 763.28 592.595 530.691 519.044 455.821 429.045 349.729 345.326 336.598 310.842 299.503 297.201 273.877 262.197 246.482 246.479 235.335 215.192 214.974 234.673 213.671 206.972 188.59 186.488 186.365 178.75 177.779 176.011 172.264 170.915 196.826 169.533 167.816 164.742 164.2
threshold=196.06000000000003 1933.3900000000001 1933.3900000000001 1.0000000180025095e-35 0.12857142857142853 5072.0750000000007 0.12857142857142853 51.500000000000007 1.0000000180025095e-35 0.12857142857142853 100.50000000000001 1.0000000180025095e-35 4.5000000000000009 3.5000000000000004 4.5000000000000009 1.0000000180025095e-35 1.5000000000000002 0.14119601328903653 26.500000000000004 433.50000000000006 -1.0000000180025095e-35 115618.85500000001 3.5000000000000004 16546.605000000003 5.8150000000000004 24067.165000000005 1.0000000180025095e-35 9618.8350000000009 394.71500000000009 2578.6274285714303 -1.0000000180025095e-35 5072.0750000000007 -1.0000000180025095e-35 1.5000000000000002 0.066468969514516071 1.0000000180025095e-35 15.609300106326403 3.5000000000000004 11.000000000000002 86.945000000000007 21915.605000000003 -3.4999999999999996 261.50000000000006
decision_type=2 2 2 2 8 2 10 10 2 10 10 10 2 2 2 2 8 10 10 10 10 10 10 2 8 2 2 2 8 10 10 2 10 2 10 2 2 2 2 10 2 8 8
left_child=1 4 3 5 6 9 8 39 12 11 40 14 18 -8 -2 19 32 23 41 -14 33 37 -6 35 -17 36 27 31 -26 -11 -22 -4 -16 -10 -35 42 -21 -5 -39 -3 -7 -1 -15
right_child=2 7 26 21 22 10 13 -9 20 29 -12 -13 15 17 16 24 -18 -19 -20 25 30 -23 -24 -25 28 -27 -28 -29 -30 -31 -32 -33 -34 34 -36 -37 -38 38 -40 -41 -42 -43 -44
leaf_value=0.10507307902275349 0.034131184449151808 0.027943808900182492 0.016635092352663992 -0.022023377701281443 0.024171318284051918 0.033309230858857786 0.16947621574630173 0.65748622436839788 0.26529526909476292 0.17200342754756792 0.21123717674251563 0.26340118682148289 0.085535886782941398 0.11315174956696952 0.3564738260258758 0.076500595929892765 0.015156250192573323 0.44464221604635978 0.51607761287914777 0.1595069523945451 0.092433661690854249 0.30297407069297966 0.18176719628837826 0.14057644652352044 0.51796331102918614 0.073631423949211891 -0.026438802190407788 -0.020866857299760913 0.19426751942494017 0.43647786915541625 0.22770209633469887 -0.012689835023587033 0.1067533212412457 0.20177647691076053 0.13123740262879152 0.53083935390843906 0.25329465973251963 0.0049686846510455665 0.16130701572930292 -0.0049874250439090381 0.00019273026404764446 0.042028058143297083 0.28695363750937725
leaf_weight=60.998215625993907 120.8926834682934 186.73786289151758 241.92011217260733 772.90703019173816 71.977959646377712 225.27685687784106 45.190350303426385 1.8433627216145385 25.361445507500321 39.602599096484482 10.785809447523205 10.921809027437119 59.650872987229377 4.4804855012334874 2.2872330839745691 2.3721314980648431 33.994197689462453 7.4936012639664105 1.1603049896657456 87.256568257231265 35.312096603214741 1.9084900193847705 8.3559963172301632 11.203139762394128 4.076652337796987 18.429588621947914 3654.8742158645764 2349.800665892195 2.4708535303361714 2.3656059401109806 9.9710835847072286 505.32408302556723 157.7339941309765 127.52008693432435 34.178233074489981 2.0628009536303571 17.785653246566653 26.95595561992377 7.8426195182837537 320.0837674960494 236.75931071257219 64.154679784551263 48.388058471959084
leaf_count=7455 17451 28530 38236 126561 9715 34289 3272 185 763 5062 812 626 7358 371 221 316 4894 516 110 9651 3576 159 531 824 455 2343 607429 388495 266 257 617 82442 21761 5583 1089 118 1912 4405 927 51666 36647 7878 3411
internal_value=0 0.092159 -0.014312 0.0168458 0.148229 0.0509675 0.161148 0.00950283 0.144977 0.0897681 0.0207854 0.0772557 0.117352 0.236097 0.0707997 0.144007 0.0936482 0.276987 0.0768279 0.135878 0.182828 -0.0185827 0.0405638 0.25799 0.310891 0.160199 -0.0219273 -0.0166033 0.395809 0.186911 0.122219 -0.0031959 0.110323 0.1975 0.186867 0.281936 0.175387 -0.0193425 0.0402029 0.00714605 0.0163395 0.0727555 0.272224
internal_weight=0 1258.52 8402.15 1650.23 749.851 840.62 669.517 508.665 550.698 367.798 472.822 325.83 318.356 118.818 314.908 192.042 194.015 73.6281 126.313 183.123 232.343 809.614 80.334 66.1345 8.91964 123.472 6751.92 3097.04 6.54751 41.9682 45.2832 747.244 160.021 187.06 161.698 54.9313 105.042 807.706 34.7986 506.822 462.036 125.153 52.8685
internal_count=1519185 148511 1370674 254072 68130 122020 57884 80381 49372 50272 71748 44953 37744 8512 44327 22301 26876 5240 15443 21264 11628 132052 10246 4724 1037 13906 1116602 509173 721 5319 4193 120678 21982 7435 6672 3900 11563 131893 5332 80196 70936 15333 3782
is_linear=0
shrinkage=0.0274664


Tree=3
num_leaves=44
num_cat=0
split_feature=159 26 230 32 26 32 55 242 26 236 99 242 55 86 387 230 562 434 138 485 140 280 650 26 773 20 429 236 159 203 230 634 242 625 86 367 540 782 700 291 203 84 7
split_gain=17557.3 4141.37 2219.12 1103.78 920.138 783.366 971.186 657.877 611.01 580.243 489.924 408.186 384.756 360.719 359.208 326.745 321.655 303.042 850.949 401.954 288.964 278.489 276.725 262.368 241.914 230.616 226.059 404.155 210.071 207.942 203.159 202.27 199.45 190.145 183.861 181.527 178.225 176.214 170.757 168.997 160.294 188.614 159.654
threshold=27.500000000000004 -1.0000000180025095e-35 -0.15042857142857149 848.07000000000005 8240.2750000000033 1933.3900000000001 1.0000000180025095e-35 5910.597428571441 1109.3950000000002 1.0000000180025095e-35 1.0000000180025095e-35 1.0000000180025095e-35 1.0000000180025095e-35 1.0000000180025095e-35 30.555212355212351 -0.15042857142857149 251.50000000000003 1.0000000180025095e-35 1.0000000180025095e-35 1.0000000180025095e-35 51.500000000000007 0.092857142857142874 -1.0000000180025095e-35 242.84500000000003 2.5000000000000004 -1328.8649999999996 -716.31999999999982 -1.0835548172757499 54.500000000000007 0.00083335795748587158 -0.15042857142857149 1.5000000000000002 -5702.2228571428686 -1.4999999999999998 1.0000000180025095e-35 2.1857142857142855 1081.5000000000002 -18.999999999999996 1.0000000180025095e-35 -0.12857142857142848 0.00035716137702283157 1.0000000180025095e-35 2256.1550000000002
decision_type=2 2 8 2 2 2 2 10 2 8 2 8 2 2 10 8 8 10 8 8 10 10 10 2 8 2 10 8 2 2 8 10 8 8 2 10 8 10 10 10 2 2 2
left_child=1 3 7 11 9 6 8 17 22 10 12 16 14 -12 32 -5 -1 25 -19 -20 28 24 -4 -15 -18 -2 -24 40 -7 36 -13 -8 -3 -10 42 -6 -16 -17 -38 -34 41 -28 -23
right_child=2 4 5 15 35 20 31 -9 33 -11 13 30 -14 23 29 37 21 18 19 -21 -22 34 26 -25 -26 -27 27 -29 -30 -31 -32 -33 39 -35 -36 -37 38 -39 -40 -41 -42 -43 -44
leaf_value=0.076299856770257024 0.23846208182001655 0.14704177138247634 0.024879182303658189 0.43816788976023957 0.0094898164218728889 -0.0094880454017582522 -0.019915569539623493 0.02176213417888918 0.18071360398578074 0.011708872910246396 0.14939224552091546 0.20509855934831195 -0.01608096411194913 0.61801185830496808 0.091040689220620197 0.051922292847773943 0.12719502449423808 0.15074235045855325 0.39233164797922199 0.84713972506121349 0.24842229238370037 0.204609156751485 0.058355837817691984 0.19026783632711142 0.17179018757300463 0.045996877700923137 0.24197912579976491 0.11239633418091378 -0.023914598354165796 0.048045532153431991 0.017246241436806298 0.31532400328007559 0.14417447151560164 0.0077509691961380025 0.39155941977525616 0.19340907056293602 0.14894989866925659 0.34799609158343053 0.33753193427718253 0.045544370095320516 0.20367216083502623 0.6762596368365883 0.12119818344569022
leaf_weight=36.250538186170161 11.762475889176129 18.184625767171383 57.472922045271844 1.705884871073067 377.43672895478085 874.79368659248576 704.56938783777878 16.602183998096734 4.8595300326123834 113.68326521944255 25.385972087737176 5.2824396784417331 33.2107841107063 2.337554477620869 49.259633030276746 125.59738197410479 188.18920013308525 8.6125145358964765 3.6565395561046916 2.4470001989975563 2.9813122702762476 102.62130451062694 52.316062330268323 2.0137286963872612 179.10502054728568 7.8185038017109063 1.3230178542435171 50.190355113707483 5877.1923957602121 28.268223844934255 24.425509452354166 1.3603796125389624 14.053236228413878 360.78505344223231 3.5306570273824027 4.0923425438813856 65.267143934033811 1.5350371422246087 3.835099797230213 194.39540662430227 2.8458454739302397 1.7555921603925524 20.824459090363234
leaf_count=3316 373 1690 7982 147 53329 143817 118158 1874 308 16238 2421 299 5018 176 5814 16944 16297 121 335 185 187 5515 6869 208 6530 1093 134 7044 998971 3849 2918 145 1604 55853 213 325 7196 163 450 23375 314 215 1172
internal_value=0 0.0820032 -0.0170944 0.133053 0.0442366 -0.0182457 0.00184465 0.163689 0.0298856 0.066976 0.0813794 0.149723 0.0735062 0.188997 0.0814771 0.0605639 0.155271 0.232391 0.326568 0.574671 -0.0219261 0.161063 0.0736031 0.420056 0.148941 0.161613 0.0994289 0.137721 -0.0220455 0.114975 0.0506487 -0.0192695 0.0598043 0.0100497 0.196128 0.0114626 0.13096 0.0554972 0.159416 0.0521938 0.352268 0.48963 0.190538
internal_weight=0 1620.49 8043.34 689.067 931.424 7992.45 1237.48 50.8992 531.548 549.895 436.211 560.229 406.474 29.7373 373.263 128.838 530.521 34.297 14.7161 6.10354 6754.97 494.271 165.904 4.35128 367.294 19.581 108.431 56.1148 6751.99 146.63 29.7079 705.93 226.633 365.645 126.976 381.529 118.362 127.132 69.1022 208.449 5.92446 3.07861 123.446
internal_count=1519185 175207 1343978 53514 121693 1339997 197022 3981 78719 68039 51801 36260 48996 2805 43978 17254 33043 2107 641 520 1142975 29727 22558 384 22827 1466 14576 7707 1142788 17309 3217 118303 26669 56161 6900 53654 13460 17107 7646 24979 663 349 6687
is_linear=0
shrinkage=0.0274664


Tree=4
num_leaves=44
num_cat=0
split_feature=22 181 567 237 231 371 11 371 1 55 242 55 241 567 55 141 11 634 280 55 55 637 153 99 371 171 217 419 100 435 1 266 336 349 231 242 419 117 184 445 435 280 1
split_gain=12993.7 4655.42 1584.64 1064.41 743.881 728.541 570.889 421.561 406.418 389.48 360.766 339.323 299.63 293.294 274.272 457.392 340.93 247.132 243.317 214.404 196.941 192.34 204.304 197.454 188.883 167.986 166.928 163.648 171.89 195.607 157.358 144.077 149.633 181.928 142.871 141.421 142.326 131.593 129.205 128.245 126.065 123.846 121.053
threshold=748.62000000000012 -3407.0999999999995 36.500000000000007 221.73279069767403 -205.24019956002499 0.7857142857142857 153.11500000000004 0.7857142857142857 202006.00000000003 1.0000000180025095e-35 1.0000000180025095e-35 1.0000000180025095e-35 0.12857142857142853 43.500000000000007 1.0000000180025095e-35 4012.5700000000002 278.23500000000007 1.0000000180025095e-35 0.12857142857142853 1.0000000180025095e-35 1.0000000180025095e-35 9.9599999999999813 1097.5000000000002 1.5000000000000002 1.0000000180025095e-35 2039.6050000000002 -1.0000000180025095e-35 394.71500000000009 1.0000000180025095e-35 16709.085000000003 202001.50000000003 -0.52857142857142836 30.555212355212351 -840.73342857142586 -1.0000000180025095e-35 -5702.2228571428686 394.71500000000009 -850.49999999999989 422.5800000000001 1.0000000180025095e-35 -3761.7799999999993 0.12857142857142853 202004.50000000003
decision_type=2 2 8 8 10 10 2 10 2 2 10 2 8 8 2 10 2 8 10 2 2 10 8 2 10 2 10 10 2 8 2 8 8 8 8 10 8 8 2 10 10 10 2
left_child=1 7 6 4 9 14 11 13 26 12 20 18 21 41 15 16 31 19 25 34 27 22 40 38 -8 35 -6 28 -10 37 -14 32 -4 -34 -7 36 -2 -30 -24 -25 -3 -1 -37
right_child=2 3 5 -5 8 17 24 -9 10 -11 -12 -13 30 -15 -16 -17 -18 -19 -20 -21 -22 -23 23 39 -26 -27 -28 -29 29 -31 -32 -33 33 -35 -36 42 -38 -39 -40 -41 -42 -43 -44
leaf_value=0.021904403386361338 0.20835702720390839 0.13612152706151959 0.049653633923825595 0.011330776133830329 0.096550003706910775 0.17422345371937889 -0.0035622763375517288 0.12501336156833334 0.10953748894675359 0.017753164909940649 -0.01482829032390285 -0.017215179237746257 0.29606622751759154 -0.0087821949356574561 -0.025607969014483256 -0.020086098351342375 -0.010445371927970242 0.40047591865981891 0.11901730432835608 0.011009724137479917 0.0008629480034237076 0.077351926658572295 0.15467732955044836 0.27785049102102316 0.10666642708467065 0.016258863861391592 0.041321033459903643 0.043521148844249714 0.14481260495299969 0.10458067620829735 0.047651778351161696 0.028868259670859424 0.59994305377151314 0.084551650956570593 0.052233016140437682 0.024240319709617379 0.038559482616360025 0.24146672735413821 0.10327128613463701 0.076641686967086606 0.082306682183585958 0.081414716721390445 0.071175051488005556
leaf_weight=187.24741397704929 9.3023826885037106 77.113868916407228 2.841585626360029 94.973324803635478 54.460566609632224 15.855329739861189 467.53035247139633 22.584905371069908 114.56218838086352 23.404418482910842 17.078564725350589 57.920382781419903 2.0249229171313337 432.67003228655085 4042.5597807765007 2287.1633994542062 348.27135490160435 1.7275660433806468 39.295776890125126 26.901928685139865 10.578507523052393 37.214327366556972 300.13482580333948 14.215962755959483 12.02922559622675 95.040373446885496 170.66034317715093 18.050270616076887 18.61142110824585 25.8750901510939 38.484884650912136 239.06765075353906 1.0940341074019668 0.97909169318154488 13.333143014460804 65.563507595099509 6.2104172599501899 24.768825141713023 42.053531107958406 2.8726207017898551 57.196296841371804 30.708149455953389 112.74705160874873
leaf_count=26481 894 4285 405 13544 3487 992 72155 724 9720 2975 2235 9244 82 71862 704539 394329 56773 54 4498 3404 1467 2725 14405 666 1011 13895 18193 1728 1744 2459 3986 35718 147 146 1121 8433 693 2119 3901 212 4646 4017 13071
internal_value=0 0.065667 -0.0158356 0.0993831 0.107352 -0.0201827 0.0192163 0.00835587 0.0809034 0.127572 0.106622 0.0440758 0.132071 0.00430639 -0.0209937 -0.0145155 0.0069968 0.0769109 0.0548936 0.0669452 0.116385 0.137566 0.142106 0.15291 -0.00079731 0.0461705 0.0546819 0.122439 0.130188 0.164349 0.060069 0.0318945 0.179102 0.356535 0.118499 0.0608376 0.14038 0.199999 0.14836 0.244027 0.113204 0.0302889 0.0539175
internal_weight=0 1817.55 7845.43 1144.33 1049.36 6979.79 865.639 673.211 454.646 594.716 229.525 386.08 571.311 650.626 6921.98 2879.42 592.254 57.818 328.16 56.0904 212.446 530.801 493.587 359.277 479.56 288.864 225.121 201.868 183.818 69.2553 40.5098 243.982 4.91471 2.07313 29.1885 193.823 15.5128 43.3802 342.188 17.0886 134.31 217.956 178.311
internal_count=1519185 197663 1321522 94579 81035 1197628 123894 103084 43152 37883 21472 50728 34908 102360 1192057 487518 93189 5571 41484 5517 19237 30840 28115 19184 73166 36986 21680 17770 16042 6322 4068 36416 698 293 2113 23091 1587 3863 18306 878 8931 30498 21504
is_linear=0
shrinkage=0.0274664


Tree=5
num_leaves=44
num_cat=0
split_feature=159 20 370 237 159 464 111 172 303 56 172 616 112 241 267 540 55 171 56 15 140 577 484 712 10 10 617 215 420 140 303 637 20 387 370 36 579 637 242 420 311 637 4
split_gain=14092.7 2391.3 1701.72 695.058 654.026 520.026 431.721 401.898 378.257 319.441 337.338 268.245 261.804 217.023 178.54 174.309 170.478 227.709 165.634 164.958 154.069 151.719 159.37 238.711 143.217 174.213 149.989 142.464 136.126 133.174 131.98 125.201 150.186 130.809 123.568 122.974 153.147 119.657 116.936 114.2 126.211 109.076 107.506
threshold=27.500000000000004 -1.0000000180025095e-35 0.90714285714285714 221.73279069767403 54.500000000000007 1.0000000180025095e-35 10.500000000000002 2295.8850000000007 0.10232558139534902 1.0000000180025095e-35 2295.8850000000007 1.0000000180025095e-35 inf -0.12857142857142848 -239.63799999999847 345.50000000000006 1.0000000180025095e-35 3258.6000000000004 11700.005000000003 1.0000000180025095e-35 29.500000000000004 -1977.4999999999998 1.0000000180025095e-35 1.5000000000000002 372.87500000000006 -70.984999999999985 inf 4.1119285714284564 213.82000000000002 51.500000000000007 1.0000000180025095e-35 9.9599999999999813 -2452.9399999999996 30.319305019305002 0.61428571428571466 1.0000000180025095e-35 4661.9800000000005 -1.0000000180025095e-35 10549.573285714303 259.79500000000007 0.17292358803986704 -1.0000000180025095e-35 inf
decision_type=2 2 10 8 2 8 2 2 10 2 2 8 8 10 8 8 2 2 2 2 10 10 10 8 2 2 8 10 10 10 10 10 2 10 10 2 10 10 8 8 8 10 8
left_child=1 3 4 6 9 7 15 12 13 10 14 18 28 -8 37 -1 17 -6 -4 38 -12 -14 23 27 25 -15 -27 -23 30 -19 -3 32 33 -17 -26 36 -10 -2 -13 40 -16 -34 -39
right_child=2 5 11 -5 16 -7 8 -9 35 -11 20 19 21 24 39 31 -18 29 -20 -21 -22 22 -24 -25 34 26 -28 -29 -30 -31 -32 -33 41 -35 -36 -37 -38 42 -40 -41 -42 -43 -44
leaf_value=0.07646187693569044 0.35124625704950357 0.04441706369215076 0.091823996542623354 0.025837861419948031 0.0048766774651158636 -0.014677110987870196 0.12251926995815259 0.0075922059724812261 0.23560245394371387 -0.021868239853834643 -0.0027837464642313267 0.1660103644016063 0.050905347789239309 0.03865763082011945 0.044518850707717224 0.17257038209006778 -0.02570472470860416 -0.019830033916094433 0.0069098280107614046 0.35405160846501421 0.21319019317837296 0.10432184540908417 0.052580534039997941 0.45715316711973741 0.021031748679587615 0.075713875765495417 0.12798745717887594 0.21792626157730649 0.0061255920670984839 0.19162626111405903 0.11485713008532258 0.07294460937088032 0.26502719371737837 0.12973358044001562 0.087831512706885453 0.076902186063872835 0.086039237958448811 0.065577075768660134 0.028383571021977964 0.0087128932054661521 0.3357086356991667 0.10455011395490513 0.27152482812345052
leaf_weight=61.015708206221461 1.5942758680321265 237.6343648256734 51.610371741466224 100.43519912520424 326.87114695226774 148.17819848284125 63.918325392063707 182.97835154365748 20.226923050358895 381.34793133474886 683.83367627486587 22.943494776263833 60.726475704926997 63.413481451105326 124.74980191700161 78.495358138810843 3738.4600959490053 2297.2635190184228 26.090432362630963 2.9402805133722714 2.5009160088375202 54.267000487074256 28.726018226705492 1.6418630871921767 73.182250725105405 142.8426507320255 58.314060046803206 9.8370864028111082 65.766667846590281 2.2490845257416359 21.917270839679986 31.000706502702087 3.2684219293296328 170.78432417288423 29.237299826927483 8.3524419069290143 6.9359855158254495 11.474772749003023 5.8436723123304608 108.74323757132515 1.1331171044148494 142.72529218439013 2.2945018098689589
leaf_count=4308 175 25839 3308 12770 52422 22782 2147 26220 985 66476 111047 845 6329 6719 16106 2741 668141 403478 3271 87 174 5397 3331 128 7585 12920 4971 1000 8778 96 1986 1805 140 6385 978 608 530 1360 565 16047 121 7825 259
internal_value=0 0.0672799 -0.0167588 0.0945648 -0.0182907 0.031844 0.101802 0.0422335 0.0829139 -0.000677554 0.00795303 0.0907909 0.0554248 0.0758129 0.0352697 0.119882 -0.021937 -0.016574 0.0633115 0.158088 -0.00199676 0.0847773 0.10655 0.130131 0.0676781 0.0783537 0.0908677 0.121755 0.0414217 -0.0196232 0.0503652 0.126097 0.130266 0.143222 0.0401008 0.169071 0.197412 0.125979 0.138073 0.02933 0.04714 0.108143 0.0998961
internal_weight=0 1865.82 7791.94 1054.15 7682.52 811.673 953.713 663.495 466.423 1317.67 936.324 109.428 480.517 430.908 249.99 487.29 6364.84 2626.38 77.7008 31.7274 686.335 155.198 94.472 65.7459 366.99 264.57 201.157 64.1041 325.318 2299.51 259.552 426.274 395.273 249.28 102.42 35.5154 27.1629 15.3636 28.7872 234.626 125.883 145.994 13.7693
internal_count=1519185 175207 1343978 73417 1335902 101790 60647 79008 37443 211765 145289 8076 52788 35320 34068 23204 1124137 455996 6579 1497 111221 16185 9856 6525 33173 24610 17891 6397 36603 403574 27825 18896 17091 9126 8563 2123 1515 1794 1410 32274 16227 7965 1619
is_linear=0
shrinkage=0.0274664


Tree=6
num_leaves=44
num_cat=0
split_feature=111 22 371 237 111 22 435 217 1 141 242 55 724 266 719 55 171 11 111 171 242 782 98 242 1 445 54 25 10 10 1 625 242 10 1 215 1 645 387 445 242 8 214
split_gain=12628.7 2008.61 1547.39 655.862 630.528 415.407 335.404 328.123 267.015 228.036 213.203 203.878 197.706 180.496 178.234 171.463 221.191 196.6 165.223 156.459 155.342 147.026 141.712 138.723 134.684 130.899 128.175 123.004 146.39 126.457 134.899 116.344 114.527 166.357 127.114 108.339 127.234 107.638 104.265 101.329 101.123 99.8307 113.629
threshold=27.500000000000004 1565.3100000000002 0.7857142857142857 221.73279069767403 54.500000000000007 2565.5400000000004 -1456.0599999999997 -0.12857142857142848 202004.50000000003 4012.5700000000002 1.0000000180025095e-35 1.0000000180025095e-35 -7.4999999999999991 -0.042857142857142844 1.5000000000000002 1.0000000180025095e-35 3258.6000000000004 278.23500000000007 10.500000000000002 3258.6000000000004 1.0000000180025095e-35 -26.499999999999996 1.0000000180025095e-35 1.0000000180025095e-35 202002.50000000003 1.0000000180025095e-35 1.0000000180025095e-35 1.0000000180025095e-35 634.7650000000001 -70.984999999999985 202004.50000000003 -1.0000000180025095e-35 -5702.2228571428686 199.70000000000002 202004.50000000003 -31.868581081081096 202010.50000000003 -4501.0649999999996 30.319305019305002 1.0000000180025095e-35 -13891.43628571425 24067.165000000005 138.262189189189
decision_type=2 2 10 8 2 2 10 8 2 8 10 2 10 8 8 2 2 2 2 2 10 10 2 10 2 10 2 2 2 2 2 10 8 2 2 10 2 8 10 8 10 2 10
left_child=1 3 4 6 5 9 10 31 -8 13 18 19 23 25 20 16 17 39 26 32 22 -18 -10 -4 -23 35 38 -20 29 -29 -31 -3 33 -9 -34 -2 37 -37 -1 -6 -14 42 -36
right_child=2 7 12 -5 15 -7 8 11 14 -11 -12 -13 40 -15 -16 -17 21 -19 27 -21 -22 24 -24 -25 -26 -27 -28 28 -30 30 -32 -33 34 -35 41 36 -38 -39 -40 -41 -42 -43 -44
leaf_value=0.13818578156229841 0.0053926137431863815 0.13296563565852898 0.13112047116903036 0.022990017231033139 0.05049091098887433 -0.011671476810434043 0.047859316523554275 0.19326601479661748 0.083430872961258146 0.0062784684863644363 0.027242229489057055 -0.018266306093907638 0.13214707186093563 0.034216456511993044 0.34619291159902987 -0.025669032951172441 -0.019874368299080118 -0.011022855843140745 0.11465500223291575 -0.0042934996082197923 -0.010236180801933552 0.2364245332907644 0.15793066660940419 0.039588797560223835 -0.000949874368276208 0.013223807018277387 0.034031139265714015 0.030687128114273498 0.0204737432578844 0.057271632231121895 0.11712020431411603 0.053406686902574468 0.0027226027028017167 0.020955198783474939 0.044240959411385866 0.3676433884321183 0.42969741706769776 0.12936166306547064 0.10677404448863892 -0.0055798484871496168 0.023283923085904421 0.0093047178637244224 0.12025443277265983
leaf_weight=115.2802476035431 3.3209975054487648 20.252006967086345 54.581190995872021 140.21641158079728 80.483849575743079 879.28513649245724 237.68102044751868 7.9511138945817974 291.21407291479409 275.23405589861795 30.128961632028222 123.06622201064602 7.5498317289166144 127.33696037717164 1.9760669376701105 3636.0507757281885 2247.7239062450826 211.63201652700081 75.16517248749733 123.43103432655334 12.540293142665176 3.218409087508916 20.626227228436619 16.198518462944776 4.1008903747424483 7.3828373779542735 14.793330241460351 27.18035280611366 32.920407852623612 43.823272262699902 80.793542813975364 43.978328776080161 97.552706277463585 9.0241677747108024 122.14083638461307 1.597730742767453 1.3807972092181451 13.636747238691894 258.42027735244483 34.839547241106629 43.675483671016991 53.443144377321005 16.88688982417807
leaf_count=3616 441 1439 2422 17971 11906 147703 19987 712 22817 43178 2480 19920 164 16774 82 666749 402717 35058 1605 18170 1421 238 1128 1330 589 931 668 2708 2784 3361 5697 4848 12737 959 14048 186 136 1583 10170 5229 4144 6605 1774
internal_value=0 0.0609054 -0.0166052 0.0793007 -0.018178 -0.000853329 0.0856551 0.0197282 0.0700037 0.0212738 0.098666 0.012909 0.080428 0.0479603 0.0861312 -0.0218256 -0.0164131 0.00469946 0.101985 0.0218225 0.084547 -0.0194742 0.0883586 0.110173 0.103427 0.112022 0.113325 0.0850327 0.0729789 0.0843657 0.0960736 0.0784918 0.0323226 0.101664 0.028264 0.148609 0.177234 0.154352 0.116464 0.0335518 0.0393287 0.0412095 0.0534739
internal_weight=0 2000.49 7649.23 1382.76 7527.22 1309.18 1242.54 617.726 564.038 429.89 678.506 553.496 122.005 154.656 326.357 6218.05 2582 326.955 648.377 430.43 324.381 2255.04 311.84 70.7797 7.3193 27.3191 388.494 259.883 184.718 151.797 124.617 64.2303 306.999 16.9753 290.024 19.9363 16.6153 15.2345 373.701 115.323 51.2253 192.471 139.028
internal_count=1519185 177707 1341478 96495 1333418 210932 78524 81212 45435 63229 33089 74925 8060 20051 25448 1122486 455737 52193 30609 55005 25366 403544 23945 3752 827 3277 14454 16155 14550 11766 9058 6287 36835 1671 35164 2346 1905 1769 13786 17135 4308 22427 15822
is_linear=0
shrinkage=0.0274664


Tree=7
num_leaves=44
num_cat=0
split_feature=111 22 369 638 111 236 37 638 22 153 56 181 100 634 56 625 688 142 446 237 89 56 142 54 638 435 267 1 22 688 649 435 37 574 10 1 118 37 140 595 10 688 817
split_gain=11465.4 1644.49 1365.78 667.708 583.257 570.588 500.088 368.161 356.183 283.68 282.207 264.457 265.175 242.133 225.794 217.981 206.918 188.434 176.875 176.621 163.48 156.351 202.888 155.655 134.572 130.886 130.105 125.254 123.034 118.254 116.851 116.633 164.943 231.224 119.836 134.781 116.005 111.937 109.609 105.138 103.715 103.817 102.015
threshold=27.500000000000004 1565.3100000000002 57.728571428571406 -1.0000000180025095e-35 54.500000000000007 1.0000000180025095e-35 34452.975000000006 -1.0000000180025095e-35 2565.5400000000004 257.50000000000006 1.0000000180025095e-35 -3407.0999999999995 1.0000000180025095e-35 1.0000000180025095e-35 20057.745000000006 -1.0000000180025095e-35 1.0000000180025095e-35 5881.5350000000008 18819.905000000002 88.451793436293073 1.0000000180025095e-35 1.0000000180025095e-35 3374.7100000000005 1.0000000180025095e-35 -1.0000000180025095e-35 -1456.0599999999997 -43.345714285714344 202004.50000000003 9797.5750000000025 1.0000000180025095e-35 -1.0000000180025095e-35 50220.790000000008 43919.55000000001 8.0000000000000018 -184.33499999999995 202009.50000000003 22.500000000000004 14288.165000000003 29.500000000000004 1012.0500000000001 -184.33499999999995 1.0000000180025095e-35 -2.8630270367109847
decision_type=2 2 10 8 2 8 2 10 2 8 2 2 2 8 2 8 10 10 8 8 2 2 10 2 8 10 10 2 2 8 10 10 2 10 2 2 10 2 10 10 2 10 8
left_child=1 5 3 20 8 6 9 -8 17 -1 15 -11 25 14 -4 -3 23 18 26 31 -2 22 28 27 -7 -13 -5 -14 37 -28 -27 32 33 34 -17 -36 -24 40 -19 42 -6 -42 -29
right_child=2 10 13 4 21 24 7 -9 -10 11 -12 12 16 -15 -16 19 -18 38 -20 -21 -22 -23 36 -25 -26 30 29 39 -30 -31 -32 -33 -34 -35 35 -37 -38 -39 -40 -41 41 -43 -44
leaf_value=0.039533222320523691 0.47300665857529167 0.10679837580726689 0.083714949500214367 0.11298392268339855 -0.0072213583556412966 0.23538017926042845 0.15239712311795964 0.016825323510484012 -0.011744349195092589 0.048397608317094609 -0.017728946049398397 0.093032424805174915 0.08431087229773028 0.24630915777720422 0.0042840241602962745 -0.007434619728882725 0.18726432865446302 -0.00046906854235236783 -0.0034680706083504765 -0.0069159069014008675 0.12071524910344879 -0.02559370705910459 -0.02007191291119027 0.016633828640658543 0.022319875446482458 0.17568423014983012 0.037077030379111642 0.060917951893592455 -0.010763112931329323 0.17504925398577242 0.064550860692193721 0.001155696106477231 -0.0039894082592628896 0.13251472016513052 0.037571724753290507 0.093966519901797968 0.13251917616585102 -0.020097818624331916 0.16903383104644976 0.030852865302112401 0.045651202950142029 0.20596541377312991 0.13859617366608634
leaf_weight=98.270434388890862 2.4665326126851141 25.17935891635716 96.129997439216822 23.41484141908586 30.934021963737905 2.2658207886852324 16.966699054464698 138.1829271549359 867.86424949439242 111.91319121560082 127.4269263795577 412.95997991319746 78.966330542229116 5.5652577122673383 37.541968690697104 32.560732694342732 27.254288020543754 228.36349675618112 56.677769503090531 108.55184204177931 1.6641879393719134 3493.8056488088332 2212.745757047087 13.43040550034493 172.27632129658014 7.3544978303834787 120.39299135515466 14.0265259090811 219.79629045212641 4.8761443961411706 241.93651780905202 70.459837992209941 52.040189777966589 23.118220954202116 150.1839585006237 40.617186640854925 3.7649563937447956 36.362161930650473 2.914750055409967 8.2383534866385144 76.420993722975254 3.1739337029866865 140.65774309216067
leaf_count=8497 173 1747 5195 2524 4956 47 318 12102 147489 10913 20735 13854 4608 110 4470 4456 947 36690 7463 15563 175 657119 404851 878 20106 235 15452 602 36813 549 15347 9232 5651 1981 17623 4224 430 5591 167 467 10840 421 7574
internal_value=0 0.0559572 -0.0164263 -0.018033 -0.0182283 0.0717361 0.0779509 0.0316511 -0.00156428 0.0841703 0.0187797 0.0883213 0.0930502 0.0687971 0.0614067 0.0280339 0.115326 0.0186696 0.0378177 0.0238808 0.331075 -0.0218055 -0.0166819 0.107647 0.0250857 0.0835453 0.0535557 0.1127 0.0022432 0.0424476 0.0678295 0.032941 0.0404433 0.0498245 0.041266 0.0495769 -0.0198127 0.0217048 0.00166714 0.12646 0.0354572 0.0520439 0.131552
internal_weight=0 2114.84 7524.88 7385.64 7381.51 1484.7 1310.16 155.15 1304.5 1155.01 630.138 1056.74 944.825 139.237 133.672 502.711 282.574 436.64 205.362 477.532 4.13072 6077 2583.2 255.319 174.542 662.251 148.684 241.889 366.687 125.269 249.291 368.98 298.52 246.48 223.362 190.801 2216.51 146.891 231.278 162.923 110.529 79.5949 154.684
internal_count=1519185 177707 1341478 1331703 1331355 96495 76342 12420 210334 63922 81212 55425 44512 9775 9665 60477 15076 62845 25988 58730 348 1121021 463902 14129 20153 29436 18525 13251 58621 16001 15582 43167 33935 28284 26303 21847 405281 21808 36857 8643 16217 11261 8176
is_linear=0
shrinkage=0.0274664


Tree=8
num_leaves=44
num_cat=0
split_feature=111 26 365 22 231 31 37 115 160 638 37 358 280 638 37 1 141 55 160 55 31 782 266 26 10 54 100 1 1 7 7 688 638 237 55 140 267 141 34 1 26 217 111
split_gain=10458.8 1552.34 1203.61 621.893 611.585 481.009 354.384 369.314 319.227 340.125 285.969 254.755 193.304 190.078 276.526 186.861 186.208 183.26 163.953 162.81 222.699 162.552 153.828 151.024 137.682 129.782 138.717 128.494 125.13 124.874 146.51 119.769 119.4 115.72 112.897 106.947 102.163 161.314 99.3797 99.1356 98.0981 96.6098 95.7158
threshold=27.500000000000004 2731.1550000000007 0.77857142857142858 3734.4100000000003 -205.24019956002499 3.5000000000000004 25817.065000000006 1.0000000180025095e-35 255.74821984026903 -1.0000000180025095e-35 21817.475000000002 30.517441860465102 1.0000000180025095e-35 -1.0000000180025095e-35 73732.37000000001 202002.50000000003 2949.3200000000002 1.0000000180025095e-35 1.0000000180025095e-35 1.0000000180025095e-35 3.5000000000000004 -26.499999999999996 -0.2142857142857145 12149.110000000002 -252.87499999999997 1.0000000180025095e-35 1.0000000180025095e-35 202002.50000000003 202003.50000000003 1004.8500000000001 1819.345 1.0000000180025095e-35 -1.0000000180025095e-35 88.451793436293073 1.0000000180025095e-35 51.500000000000007 -374.98385714285644 1.0000000180025095e-35 1.5000000000000002 202003.50000000003 34496.650000000001 -0.27142857142857141 60.500000000000007
decision_type=2 2 10 2 8 2 2 8 2 8 2 10 10 10 2 2 10 2 2 2 2 10 8 2 2 2 2 2 2 2 2 10 8 8 2 10 8 8 2 2 2 10 2
left_child=1 4 3 5 13 8 7 11 9 -2 12 -6 22 -1 16 -4 18 33 25 20 23 32 -11 36 -13 26 -15 -23 -28 -14 38 -30 -7 40 41 -18 37 -5 -31 -9 -3 -17 -34
right_child=2 17 15 19 6 21 -8 39 -10 10 -12 24 29 14 -16 34 35 -19 -20 -21 -22 27 -24 -25 -26 -27 28 -29 31 30 -32 -33 42 -35 -36 -37 -38 -39 -40 -41 -42 -43 -44
leaf_value=0.12182649762267769 0.40158448300965199 0.038177689892445021 0.1084613883882424 0.44355263876536011 0.018438439770585582 0.23495236261861846 0.0017167692063741343 0.054713284829659814 -0.020671147001965068 0.11213058250947394 -0.0096135301752671518 0.011271926275837505 0.031453101588322915 0.082967700241662279 0.017264736160203808 0.083815186955303697 0.040504002454320676 -0.019602559173016166 0.00346654144141249 -0.025480563939552951 -0.020480879770294447 0.20143345080025526 0.031897753467529884 -0.0087553647917314719 0.06778972543325576 0.027130141512607505 0.070006494623736135 0.00059748302921961815 0.1149829646927284 0.24033687311241256 0.071480423437736765 0.19419508710717126 -0.0012731608303549506 -0.0062952888451313299 0.0010620780508471032 0.17247764100985608 0.02011571728839829 0.071964433568527456 0.0070824848034799224 0.099656120466651982 0.0092981860929254485 0.013687107282471094 -0.019745390513845829
leaf_weight=77.829917677212507 1.9159513097256422 234.51428744895384 44.365951024927199 1.049062223639339 200.10912933666259 1.4624730041250587 110.30431119771674 50.783493142575026 94.79798292554915 20.008511522784829 82.086861865129322 38.034887810703367 10.206278648227451 428.42071076435968 54.716179572045803 46.835449757985771 97.436603884678334 105.91604766855016 17.396877364721149 3494.1852123565041 1897.6185479937121 4.7813976113684458 182.07296812254936 370.97638991847634 224.13536961795762 24.629250066820532 41.526279027573764 4.8319130218587816 120.78067253530025 10.859247982036324 10.520322981756179 16.349352376535535 321.89246408734471 97.658512316644192 35.124297413975 4.8635098161175838 121.90586453815922 5.5131497997790575 1.5782411098480214 136.68038471741602 142.74159176507965 21.679598139598966 617.69368246197701
leaf_count=830 73 23640 1556 127 20457 91 10315 2795 16919 2107 11364 4523 1168 16560 4759 1835 9733 17415 2043 671980 351390 291 24100 61829 17574 1396 2324 679 5952 1125 1242 544 52522 13830 4283 147 18904 810 183 6809 16061 1954 114946
internal_value=0 0.0516652 -0.0162469 -0.0178286 0.0653022 -0.00112167 0.0472358 0.0549634 0.0235868 0.0367289 0.034526 0.0417767 0.0499281 0.0808363 0.0768788 0.0612921 0.0812198 0.0130665 0.0866478 -0.0216987 -0.0161859 -0.0118831 0.0398418 0.000132658 0.0595903 0.0889386 0.0914462 0.100488 0.111778 0.111388 0.146924 0.124427 -0.013031 0.0203524 0.0410998 0.0467782 0.0257985 0.131368 0.210738 0.0874812 0.0272506 0.0616252 -0.013417
internal_weight=0 2224.83 7403.96 7255.96 1644 1364.71 760.048 649.743 414.046 319.248 317.332 462.279 235.246 883.949 806.119 148.005 751.403 580.83 649.103 5891.25 2397.06 950.662 202.081 499.444 262.17 631.706 607.077 9.61331 178.656 33.1641 22.9578 137.13 941.049 474.914 103.639 102.3 128.468 6.56221 12.4375 187.464 377.256 68.515 939.586
internal_count=1519185 177707 1341478 1331850 106761 226810 62473 52158 58281 41362 41289 42554 29925 44288 43458 9628 38699 70946 28819 1105040 433060 168529 26207 81670 22097 26776 25380 970 8820 3718 2550 6496 167559 53531 8072 9880 19841 937 1308 9604 39701 3789 167468
is_linear=0
shrinkage=0.0274664


Tree=9
num_leaves=44
num_cat=0
split_feature=159 230 20 22 31 56 31 56 141 446 1 446 638 446 241 31 56 225 591 230 22 230 637 225 625 1 536 280 140 1 280 170 138 637 635 21 20 817 266 635 159 465 391
split_gain=9637.22 1201.59 1185.72 653.585 518.621 349.541 338.074 260.802 220.603 263.648 223.259 220.262 201.408 218.642 196.385 193.415 196.385 166.604 166.359 156.364 144.897 138.173 133.407 131.591 128.221 118.229 117.744 117.622 117.021 115.436 114.158 111.116 106.157 119.317 103.042 101.12 124.987 134.554 101.089 97.5924 91.4683 87.1163 82.4503
threshold=27.500000000000004 -0.15042857142857149 -1.0000000180025095e-35 3734.4100000000003 3.5000000000000004 1.0000000180025095e-35 1.5000000000000002 1.0000000180025095e-35 2949.3200000000002 57119.94000000001 202004.50000000003 27033.985000000004 -1.0000000180025095e-35 35912.480000000003 -0.042857142857142844 1.5000000000000002 1.0000000180025095e-35 28.817857142857005 261.50000000000006 -0.15042857142857149 32008.640000000003 -0.15042857142857149 369.81500000000057 147.69392857142853 -1.4999999999999998 202003.50000000003 2.5000000000000004 1.0000000180025095e-35 46.500000000000007 202001.50000000003 0.092857142857142874 50.500000000000007 1.0000000180025095e-35 -1.0000000180025095e-35 1.0000000180025095e-35 3.5000000000000004 -1644.0899999999999 -0.85991645142417739 -0.12857142857142848 -1.0000000180025095e-35 60.500000000000007 66978.200000000012 -1.0000000180025095e-35
decision_type=2 8 2 2 2 2 2 2 10 8 2 8 8 8 8 2 2 10 8 8 2 8 10 10 8 2 8 10 10 2 10 10 8 10 8 2 2 10 10 10 2 10 10
left_child=2 17 6 4 7 8 12 11 9 10 -4 23 -1 18 -15 16 24 32 -14 -8 26 -16 25 27 -5 29 -12 38 40 -20 -27 -21 -2 -34 -35 -18 37 -37 -3 -28 -6 -26 -43
right_child=1 3 5 15 28 -7 19 -9 -10 -11 20 -13 13 14 21 -17 35 -19 22 31 -22 -23 -24 -25 41 30 39 -29 -30 -31 -32 -33 33 34 -36 36 -38 -39 -40 -41 -42 42 -44
leaf_value=0.10801956561451523 0.069848639348261798 0.095360631783163244 0.019386806402251943 0.1206089299647333 -0.0010754067533166141 -0.019083565294081863 0.20263863266575022 -0.013322518277113104 0.0017618820413733641 -0.005269580047935477 0.043567190958824754 -0.00083644191716735329 0.030601148402611453 0.092528107142430802 0.12452526639935799 -0.023329394300054141 -0.022015900413206568 0.030574798360413099 0.08967515301334554 0.027783215100762249 0.0093341480277034893 0.011117779396291721 0.021238523032723649 0.011983445469961542 0.0032394280839525046 0.076197689017067791 0.099931751931389104 0.10705298677046357 0.11261421359927967 0.045168071965415259 0.10295857955723758 0.27830347078530604 0.29193517694624266 0.16194118703922375 0.05046294539618186 0.3659067507697123 0.010303597281517002 0.019776173852049238 0.039560214661640315 0.060643850877536258 -0.019130437622090102 0.25077199709216674 0.043359156405049906
leaf_weight=97.256492832209915 23.344684902578592 29.823027447331697 175.50715791201219 7.4934312459081411 323.62770228646696 121.92380383331329 4.0048638819716871 111.17064458690584 158.45539782289416 91.584208622109145 139.8651141487062 94.926168513484299 68.345060501247644 36.236603841651231 8.7497406979091448 4991.4467306681909 490.80191755061969 25.894672405906022 64.201547988690436 208.67336308630183 42.998914119321853 109.96047493396327 33.285303839948028 58.721609505359083 293.32507509505376 450.12960842624307 79.901371453423053 31.957561299670488 5.6389200570993117 139.45784186571836 164.09597305068746 1.3442577882669855 3.7628957093693307 20.342404840979725 9.0325578642077762 1.6719255330972376 20.258218552451581 1.7177502247504914 137.02982077468187 118.34623009292409 611.92948914133012 1.9725088416598735 5.4151892340742043
leaf_count=978 245 2616 18260 256 52770 19866 177 19415 21833 9947 11612 12180 4956 761 378 964531 94835 2235 2903 21799 5330 9610 2238 7141 45410 18669 6261 3003 222 6187 4701 60 179 705 617 196 3572 225 16667 8681 115831 281 846
internal_value=0 -0.0160429 0.0482782 -0.0172332 -0.000420159 0.0242616 0.0643717 0.0233576 0.0308131 0.0379148 0.0450202 0.034927 0.0701698 0.0667437 0.0365608 -0.0212956 -0.0089558 0.0882638 0.0718298 0.0326287 0.0568247 0.0194767 0.0751403 0.0481094 0.00838214 0.0773339 0.0628642 0.0587797 -0.012133 0.0591985 0.0833471 0.0293867 0.114712 0.146316 0.127663 -0.0193429 0.0361331 0.190502 0.0495339 0.0764784 -0.0128848 0.00558557 0.0987382
internal_weight=0 7301.3 2314.32 7218.93 1404.82 928.582 1385.74 463.629 806.658 648.203 556.619 352.458 1171.72 1074.46 154.947 5814.1 822.656 82.3772 919.515 214.022 381.112 118.71 851.17 257.532 308.206 817.885 338.113 198.81 941.196 203.659 614.226 210.018 56.4825 33.1379 29.375 514.45 23.6479 3.38968 166.853 198.248 935.557 300.713 7.3877
internal_count=1519185 1343978 175207 1339997 229845 101790 73417 61022 81924 60091 50144 41607 51381 50403 10749 1110152 145621 3981 39654 22036 31884 9988 34698 29427 46793 32460 26554 22286 168823 9090 23370 21859 1746 1501 1322 98828 3993 421 19283 14942 168601 46537 1127
is_linear=0
shrinkage=0.0274664


Tree=10
num_leaves=44
num_cat=0
split_feature=159 26 371 32 37 131 55 32 230 26 37 714 230 160 464 26 225 35 266 32 100 280 638 230 12 225 754 493 280 578 431 387 321 777 266 5 159 742 311 748 187 400 496
split_gain=8890.54 1513.08 901.709 603.541 462.284 461.291 411.896 569.915 360.09 347.657 310.705 242.251 202.284 197.065 185.953 169.804 165.523 159.845 157.369 149.227 136.622 132.879 125.747 121.15 116.534 111.64 100.411 115.371 99.7933 92.2025 90.8474 89.8697 85.2959 83.9715 81.8276 79.2536 79.0631 78.1554 90.8013 74.0985 71.2299 96.6301 133.28
threshold=34.500000000000007 2731.1550000000007 0.7857142857142857 3054.8500000000008 38969.995000000003 162.50000000000003 1.0000000180025095e-35 4114.7400000000007 -0.15042857142857149 8240.2750000000033 21817.475000000002 10.500000000000002 -0.15042857142857149 1.0000000180025095e-35 1.0000000180025095e-35 -1.0000000180025095e-35 -827.1054285714298 654.05500000000018 -0.2142857142857145 5204.3450000000003 1.0000000180025095e-35 0.092857142857142874 -1.0000000180025095e-35 -0.15042857142857149 7.5000000000000009 -827.1054285714298 -2599.4749999999995 1.5000000000000002 0.12857142857142853 21.500000000000004 3943.2200000000007 30.492857142857154 -1.0000000180025095e-35 9.5000000000000018 -0.2142857142857145 57.500000000000007 60.500000000000007 -11413.029999999997 0.11528239202657801 274.94500000000011 193.05000000000004 -2.0943568682268494e-06 4446.0250000000005
decision_type=2 2 10 2 2 8 2 2 10 2 2 10 8 2 8 2 10 2 8 2 2 10 8 8 2 10 8 10 10 10 10 8 10 10 8 2 2 10 10 10 2 8 10
left_child=1 3 6 4 5 -1 7 9 15 10 12 14 -2 19 17 32 35 20 26 28 25 23 -9 -5 30 -7 27 -14 34 36 -22 -27 -6 -18 -3 -4 -24 38 -13 -31 41 42 -20
right_child=2 13 16 21 8 11 -8 22 -10 -11 -12 37 18 -15 -16 -17 33 -19 40 -21 24 -23 29 -25 -26 31 -28 -29 -30 39 -32 -33 -34 -35 -36 -37 -38 -39 -40 -41 -42 -43 -44
leaf_value=0.012714433073117927 0.32975302225153708 0.061213410285537548 0.088012605574894168 0.15479484765575657 0.099341044199493939 0.077820153933054331 -0.02516517327012931 0.18454997187349634 0.0033377062391710208 -0.0054988454952924872 -0.012472523439317354 0.11418847203867263 0.10538410749518431 -0.020796192442298619 0.0049133615535533002 2.182435121730345e-05 0.0045983698391589131 0.01413605798233677 0.062758370977262931 -0.0097826360102717565 0.086474353023002992 0.062964930845960804 -0.0086413346892316636 0.0079728711349443798 0.045172500832129113 0.039397209170940611 0.090153836428622694 0.37762129977201725 0.054611741766230647 0.010838115490349538 0.14290439227368337 0.063652534654399948 0.20542904140019935 0.060362807095919339 0.013980396316073989 0.19437303050334001 -0.020540509317327479 0.057420207085795892 0.23542957817673704 0.17593636472254506 0.019947704894924274 0.049278357811301791 0.29920001517103884
leaf_weight=117.61441487260163 1.9921229896135626 29.739858780521899 28.646775239147246 4.3104433631524444 25.346905036829408 289.41520794155076 3591.7439955133013 2.3233702247962356 168.32808875339106 362.15448015416041 72.252984574064612 78.57158888084814 2.4738812078721821 144.58995930990204 36.349629927892238 11.360006771981714 35.565988294314593 40.311678838916123 4.8559859660454094 144.50912916800007 269.67516808630899 42.047150546684861 539.69515627343208 258.68270707316697 48.89067151537165 159.75379988271743 15.830017703585328 2.2356446427293122 61.78890539938584 5.6467980947345477 23.389268760569394 413.5747053110972 7.3826730046421316 47.683042477816343 397.58606348186731 6.4808966992422929 1919.4796839100309 17.418876400217414 4.9539134334772816 3.220416902564466 64.012020552065223 95.965074137784541 2.8565208544023335
leaf_count=11605 101 2357 1037 223 435 6119 722539 112 15518 58184 10462 4010 249 25124 4159 641 3758 3033 558 22517 11224 4631 95696 32784 3161 9068 1590 243 5367 688 1505 18707 259 2355 43361 181 373316 1084 105 176 9046 11551 346
internal_value=0 0.0406716 -0.0175069 0.0532218 0.0595626 0.0649332 -0.0188372 -0.0114936 0.0216398 0.0119458 0.0360154 0.0693763 0.0544329 0.00813746 0.066149 0.0915148 0.0576365 0.0679368 0.0515191 0.01474 0.0697371 0.0176278 -0.0174202 0.0103793 0.084429 0.0639138 0.123278 0.234617 0.0219852 -0.0176103 0.090978 0.056894 0.123271 0.0365389 0.0172676 0.107636 -0.0179291 0.110343 0.121379 0.0707989 0.0427297 0.0567956 0.15033
internal_weight=0 2795.59 6805.11 2017.38 1712.34 1499.92 6686.74 3094.99 212.418 624.629 262.474 1382.3 190.221 778.214 1281.36 44.0896 118.377 1245.01 188.229 633.624 1204.7 305.04 2470.37 262.993 341.955 862.744 20.5395 4.70953 489.115 2468.04 293.064 573.329 32.7296 83.249 427.326 35.1277 2459.17 100.944 83.5255 8.86721 167.69 103.678 7.71251
internal_count=1519185 226997 1292188 128271 90633 73780 1284857 562318 16853 92330 34146 62175 23684 98726 56976 1335 7331 52817 23583 73602 49784 37638 469988 33007 15890 33894 2082 492 51085 469876 12729 27775 694 6113 45718 1218 469012 5199 4115 864 21501 12455 904
is_linear=0
shrinkage=0.0274664


Tree=11
num_leaves=44
num_cat=0
split_feature=31 160 26 567 242 230 26 304 226 638 76 649 419 160 1 229 26 26 1 343 214 281 562 281 171 578 230 266 229 433 419 544 588 419 12 540 540 435 139 282 20 624 266
split_gain=7016.11 2733.08 1207.98 735.651 378.567 276.106 258.922 241.418 237.664 226.695 211.869 202.332 200.23 185.935 182.824 201.081 144.605 135.941 128.182 120.753 147.001 116.027 108.159 106.485 104.052 102.942 102.112 91.8207 90.6171 90.0061 81.2179 81.1173 86.8791 75.0798 72.3382 84.7898 71.394 71.1004 69.2269 66.7213 66.3853 85.0444 65.1916
threshold=1.5000000000000002 1.0000000180025095e-35 2731.1550000000007 43.500000000000007 1.0000000180025095e-35 -0.15042857142857149 1109.3950000000002 0.089368770764119615 0.27142857142857152 -1.0000000180025095e-35 1208.6150000000002 -1.0000000180025095e-35 670.71000000000015 1.0000000180025095e-35 202003.50000000003 -1.0000000180025095e-35 41781.640000000007 2731.1550000000007 202001.50000000003 -1.0000000180025095e-35 61.454069767441908 128.43671428571454 251.50000000000003 171.40171428571401 8092.8850000000011 20.500000000000004 -0.15042857142857149 -0.12857142857142848 -1.0000000180025095e-35 68308.700000000026 -80.764999999999986 87.750000000000014 2488.4600000000005 394.71500000000009 7.5000000000000009 496.50000000000006 1240.5000000000002 -7633.1999999999989 -1855.4999999999998 -0.27467001885606496 -44.499999999999993 -10.914999999999997 -0.042857142857142844
decision_type=2 2 2 8 8 10 2 10 10 8 2 10 10 2 2 10 2 2 2 8 10 10 8 10 2 10 10 8 10 10 10 10 8 10 2 8 8 10 8 10 2 8 10
left_child=1 2 4 6 5 19 21 11 10 -5 -3 -7 14 17 18 36 23 24 37 -1 -21 26 -17 27 29 -26 -2 -4 40 -11 -28 32 42 -30 35 -25 -16 -13 -38 -22 -9 -42 -24
right_child=3 8 16 9 -6 7 -8 28 -10 13 -12 12 -14 -15 15 22 -18 -19 -20 20 39 -23 31 34 25 -27 30 -29 33 -31 -32 -33 -34 -35 -36 -37 38 -39 -40 -41 41 -43 -44
leaf_value=0.064273061267206638 0.1295394472460403 -0.01898075550401894 0.059207635502366254 0.16472871208078105 0.0080825960916048132 0.11891640048188222 -0.0081078654244601429 0.10543801267371641 0.1044070991040735 0.014826448590482865 0.10985898300335915 0.15295774317816965 0.015687447240475508 -0.02608572978543575 0.059963979525269911 0.028158212105958001 0.00046995864617829883 -0.019774089451331342 0.020985305574860825 0.08922569588265207 0.11346739803767882 0.05496996560438025 0.088817082804771394 -0.013138915597840261 -0.012184257303014518 0.073663379478206961 0.00031624800651776998 0.015359898040462826 0.089945239906377858 0.25892555601285472 0.027787250441803059 0.017516287616829988 0.1760305962335072 0.033103337444880643 0.0096700228649960127 0.10441335106753505 0.23835325552476969 0.054345824421426915 0.11690275211479088 0.2106783737774513 0.30419587723818425 0.12131517028050434 0.058161228716558662
leaf_weight=138.3881429117173 5.8433289607055476 699.38016679184511 40.737870179582387 4.9451990355737507 111.76660030335188 32.55645447736606 437.01932944590226 14.45876194862649 12.333492767531423 124.69432144751772 9.7631626185029727 5.903051790315657 119.1099714548327 2901.2286527175456 15.919792810920624 93.599062584340572 303.17104462301359 1878.6155955297872 188.91317906044424 155.38458607997745 9.866947599686684 68.68373154103756 57.298800625838339 5.5218786816112688 555.27937973011285 10.741354169324039 166.72522121528164 311.67503068922088 97.137148544657975 1.1500839591026295 158.25738398823887 32.927555902395397 4.9748278260231009 21.390624732710421 13.189245685469357 28.626042891293764 3.9142857599072158 84.101428104564548 37.088957420550287 11.574826114811001 3.5425181877799332 4.1838457132689646 603.72195417573676
leaf_count=1045 265 131326 3145 206 10461 1452 69561 558 877 18372 1276 275 9026 600941 1100 7135 40423 365451 12700 1815 112 7200 2595 505 104437 778 22416 35130 4372 181 18136 2437 358 1434 1426 2495 232 5452 1912 211 171 180 29605
internal_value=0 0.0320704 0.0454209 -0.0174876 0.0570794 0.060234 0.00650241 0.0550744 -0.015128 -0.0211519 -0.0172069 0.0513205 0.0495564 -0.0213199 0.0531316 0.0594668 0.0147751 -0.0159409 0.0338375 0.0834894 0.0985285 0.0224844 0.0558854 0.0256241 -0.00553267 -0.0105551 0.01574 0.0204286 0.0892229 0.0170573 0.0136939 0.0595986 0.0616792 0.079687 0.0643032 0.0854046 0.10933 0.0608134 0.128497 0.165944 0.14017 0.205166 0.0608185
internal_weight=0 3272.12 2550.64 6313.18 1847.72 1735.96 836.529 1420.74 721.477 5476.65 709.143 1280.03 1247.47 5471.71 1128.36 849.445 702.921 2570.48 278.918 315.215 176.826 399.51 792.522 399.75 691.865 566.021 330.826 352.413 140.713 125.844 324.983 698.923 665.996 118.528 47.3372 34.1479 56.923 90.0045 41.0032 21.4418 22.1851 7.72636 661.021
internal_count=1519185 311241 177762 1207944 94638 84177 117578 80994 133479 1090366 132602 74279 72827 1090160 63801 45374 83124 489219 18427 3183 2138 48017 42130 42701 123768 105215 40817 38275 6715 18553 40552 34995 32558 5806 4426 3000 3244 5727 2144 323 909 351 32200
is_linear=0
shrinkage=0.0274664


Tree=12
num_leaves=44
num_cat=0
split_feature=159 22 371 231 160 142 11 1 160 446 446 181 782 267 1 203 638 638 153 598 231 638 446 316 712 54 281 729 209 153 638 316 161 212 623 142 550 159 303 1 22 419 77
split_gain=7694.63 1099.28 803.524 417.527 394.966 436.455 307.344 205.34 204.496 186.381 162.111 157.016 151.347 149.117 132.503 129.189 137.87 124.827 120.756 114.083 108.986 107.843 122.531 111.986 105.126 103.69 93.9485 85.6813 83.4401 83.1005 80.1614 80.1505 74.0642 73.729 73.8238 94.4198 95.8505 72.7727 72.238 70.7336 69.8937 67.8166 67.7672
